digraph Tree {
node [shape=box, fontname="helvetica"] ;
edge [fontname="helvetica"] ;
0 [label="x[84] <= 0.447\nsquared_error = 6208271071.287\nsamples = 1095\nvalue = 180733.15"] ;
1 [label="x[82] <= 0.046\nsquared_error = 2444600754.23\nsamples = 666\nvalue = 144343.005"] ;
0 -> 1 [labeldistance=2.5, labelangle=45, headlabel="True"] ;
2 [label="x[54] <= 0.5\nsquared_error = 1267462751.457\nsamples = 489\nvalue = 130169.372"] ;
1 -> 2 ;
3 [label="x[45] <= 0.5\nsquared_error = 984429446.444\nsamples = 411\nvalue = 125217.513"] ;
2 -> 3 ;
4 [label="x[90] <= -0.166\nsquared_error = 776069743.438\nsamples = 346\nvalue = 130311.243"] ;
3 -> 4 ;
5 [label="x[89] <= -0.647\nsquared_error = 646662486.382\nsamples = 228\nvalue = 123464.781"] ;
4 -> 5 ;
6 [label="x[91] <= -0.36\nsquared_error = 479842653.222\nsamples = 101\nvalue = 115051.366"] ;
5 -> 6 ;
7 [label="x[83] <= -0.958\nsquared_error = 435211956.879\nsamples = 68\nvalue = 108563.059"] ;
6 -> 7 ;
8 [label="x[66] <= 0.5\nsquared_error = 209312500.0\nsamples = 8\nvalue = 87500.0"] ;
7 -> 8 ;
9 [label="x[89] <= -1.261\nsquared_error = 97600000.0\nsamples = 5\nvalue = 79000.0"] ;
8 -> 9 ;
10 [label="x[33] <= 0.5\nsquared_error = 2250000.0\nsamples = 2\nvalue = 83500.0"] ;
9 -> 10 ;
11 [label="squared_error = 0.0\nsamples = 1\nvalue = 82000.0"] ;
10 -> 11 ;
12 [label="squared_error = 0.0\nsamples = 1\nvalue = 85000.0"] ;
10 -> 12 ;
13 [label="x[30] <= 0.5\nsquared_error = 138666666.667\nsamples = 3\nvalue = 76000.0"] ;
9 -> 13 ;
14 [label="x[93] <= 0.083\nsquared_error = 16000000.0\nsamples = 2\nvalue = 84000.0"] ;
13 -> 14 ;
15 [label="squared_error = 0.0\nsamples = 1\nvalue = 88000.0"] ;
14 -> 15 ;
16 [label="squared_error = 0.0\nsamples = 1\nvalue = 80000.0"] ;
14 -> 16 ;
17 [label="squared_error = 0.0\nsamples = 1\nvalue = 60000.0"] ;
13 -> 17 ;
18 [label="x[84] <= -0.083\nsquared_error = 74388888.889\nsamples = 3\nvalue = 101666.667"] ;
8 -> 18 ;
19 [label="x[93] <= 1.003\nsquared_error = 562500.0\nsamples = 2\nvalue = 107750.0"] ;
18 -> 19 ;
20 [label="squared_error = 0.0\nsamples = 1\nvalue = 108500.0"] ;
19 -> 20 ;
21 [label="squared_error = 0.0\nsamples = 1\nvalue = 107000.0"] ;
19 -> 21 ;
22 [label="squared_error = 0.0\nsamples = 1\nvalue = 89500.0"] ;
18 -> 22 ;
23 [label="x[83] <= 0.836\nsquared_error = 398291070.249\nsamples = 60\nvalue = 111371.467"] ;
7 -> 23 ;
24 [label="x[84] <= -0.729\nsquared_error = 414663217.639\nsamples = 36\nvalue = 106853.833"] ;
23 -> 24 ;
25 [label="x[91] <= -1.724\nsquared_error = 443390409.877\nsamples = 9\nvalue = 86608.889"] ;
24 -> 25 ;
26 [label="squared_error = 0.0\nsamples = 1\nvalue = 52000.0"] ;
25 -> 26 ;
27 [label="x[87] <= -0.487\nsquared_error = 330377075.0\nsamples = 8\nvalue = 90935.0"] ;
25 -> 27 ;
28 [label="x[16] <= 0.5\nsquared_error = 183086464.0\nsamples = 5\nvalue = 99296.0"] ;
27 -> 28 ;
29 [label="x[93] <= 0.083\nsquared_error = 170170700.0\nsamples = 4\nvalue = 95870.0"] ;
28 -> 29 ;
30 [label="x[66] <= 0.5\nsquared_error = 9000000.0\nsamples = 2\nvalue = 83000.0"] ;
29 -> 30 ;
31 [label="squared_error = 0.0\nsamples = 1\nvalue = 80000.0"] ;
30 -> 31 ;
32 [label="squared_error = 0.0\nsamples = 1\nvalue = 86000.0"] ;
30 -> 32 ;
33 [label="x[5] <= 0.5\nsquared_error = 67600.0\nsamples = 2\nvalue = 108740.0"] ;
29 -> 33 ;
34 [label="squared_error = 0.0\nsamples = 1\nvalue = 108480.0"] ;
33 -> 34 ;
35 [label="squared_error = 0.0\nsamples = 1\nvalue = 109000.0"] ;
33 -> 35 ;
36 [label="squared_error = 0.0\nsamples = 1\nvalue = 113000.0"] ;
28 -> 36 ;
37 [label="x[7] <= 0.5\nsquared_error = 265166666.667\nsamples = 3\nvalue = 77000.0"] ;
27 -> 37 ;
38 [label="x[94] <= 0.128\nsquared_error = 280562500.0\nsamples = 2\nvalue = 83250.0"] ;
37 -> 38 ;
39 [label="squared_error = 0.0\nsamples = 1\nvalue = 100000.0"] ;
38 -> 39 ;
40 [label="squared_error = 0.0\nsamples = 1\nvalue = 66500.0"] ;
38 -> 40 ;
41 [label="squared_error = 0.0\nsamples = 1\nvalue = 64500.0"] ;
37 -> 41 ;
42 [label="x[82] <= -0.478\nsquared_error = 222928475.534\nsamples = 27\nvalue = 113602.148"] ;
24 -> 42 ;
43 [label="x[89] <= -1.875\nsquared_error = 110593600.0\nsamples = 5\nvalue = 89420.0"] ;
42 -> 43 ;
44 [label="squared_error = 0.0\nsamples = 1\nvalue = 75500.0"] ;
43 -> 44 ;
45 [label="x[62] <= 0.5\nsquared_error = 77690000.0\nsamples = 4\nvalue = 92900.0"] ;
43 -> 45 ;
46 [label="x[33] <= 0.5\nsquared_error = 56435555.556\nsamples = 3\nvalue = 89466.667"] ;
45 -> 46 ;
47 [label="squared_error = 0.0\nsamples = 1\nvalue = 83000.0"] ;
46 -> 47 ;
48 [label="x[89] <= -1.261\nsquared_error = 53290000.0\nsamples = 2\nvalue = 92700.0"] ;
46 -> 48 ;
49 [label="squared_error = 0.0\nsamples = 1\nvalue = 85400.0"] ;
48 -> 49 ;
50 [label="squared_error = 0.0\nsamples = 1\nvalue = 100000.0"] ;
48 -> 50 ;
51 [label="squared_error = 0.0\nsamples = 1\nvalue = 103200.0"] ;
45 -> 51 ;
52 [label="x[93] <= 0.819\nsquared_error = 85350040.174\nsamples = 22\nvalue = 119098.091"] ;
42 -> 52 ;
53 [label="x[94] <= 1.248\nsquared_error = 72997157.816\nsamples = 14\nvalue = 116368.429"] ;
52 -> 53 ;
54 [label="x[93] <= -0.652\nsquared_error = 74899040.306\nsamples = 12\nvalue = 115179.833"] ;
53 -> 54 ;
55 [label="x[26] <= 0.5\nsquared_error = 222222.222\nsamples = 3\nvalue = 110333.333"] ;
54 -> 55 ;
56 [label="squared_error = 0.0\nsamples = 2\nvalue = 110000.0"] ;
55 -> 56 ;
57 [label="squared_error = 0.0\nsamples = 1\nvalue = 111000.0"] ;
55 -> 57 ;
58 [label="x[82] <= -0.14\nsquared_error = 89351952.0\nsamples = 9\nvalue = 116795.333"] ;
54 -> 58 ;
59 [label="x[84] <= -0.149\nsquared_error = 54755844.571\nsamples = 7\nvalue = 113144.0"] ;
58 -> 59 ;
60 [label="x[68] <= 0.5\nsquared_error = 29516330.24\nsamples = 5\nvalue = 116401.6"] ;
59 -> 60 ;
61 [label="x[14] <= 0.5\nsquared_error = 13791512.0\nsamples = 4\nvalue = 114252.0"] ;
60 -> 61 ;
62 [label="x[47] <= 0.5\nsquared_error = 3048516.0\nsamples = 2\nvalue = 110754.0"] ;
61 -> 62 ;
63 [label="squared_error = 0.0\nsamples = 1\nvalue = 109008.0"] ;
62 -> 63 ;
64 [label="squared_error = 0.0\nsamples = 1\nvalue = 112500.0"] ;
62 -> 64 ;
65 [label="x[44] <= 0.5\nsquared_error = 62500.0\nsamples = 2\nvalue = 117750.0"] ;
61 -> 65 ;
66 [label="squared_error = 0.0\nsamples = 1\nvalue = 117500.0"] ;
65 -> 66 ;
67 [label="squared_error = 0.0\nsamples = 1\nvalue = 118000.0"] ;
65 -> 67 ;
68 [label="squared_error = 0.0\nsamples = 1\nvalue = 125000.0"] ;
60 -> 68 ;
69 [label="x[68] <= 0.5\nsquared_error = 25000000.0\nsamples = 2\nvalue = 105000.0"] ;
59 -> 69 ;
70 [label="squared_error = 0.0\nsamples = 1\nvalue = 110000.0"] ;
69 -> 70 ;
71 [label="squared_error = 0.0\nsamples = 1\nvalue = 100000.0"] ;
69 -> 71 ;
72 [label="x[84] <= -0.182\nsquared_error = 455625.0\nsamples = 2\nvalue = 129575.0"] ;
58 -> 72 ;
73 [label="squared_error = 0.0\nsamples = 1\nvalue = 128900.0"] ;
72 -> 73 ;
74 [label="squared_error = 0.0\nsamples = 1\nvalue = 130250.0"] ;
72 -> 74 ;
75 [label="x[4] <= 0.5\nsquared_error = 2250000.0\nsamples = 2\nvalue = 123500.0"] ;
53 -> 75 ;
76 [label="squared_error = 0.0\nsamples = 1\nvalue = 122000.0"] ;
75 -> 76 ;
77 [label="squared_error = 0.0\nsamples = 1\nvalue = 125000.0"] ;
75 -> 77 ;
78 [label="x[44] <= 0.5\nsquared_error = 71109375.0\nsamples = 8\nvalue = 123875.0"] ;
52 -> 78 ;
79 [label="x[42] <= 0.5\nsquared_error = 30250000.0\nsamples = 2\nvalue = 133000.0"] ;
78 -> 79 ;
80 [label="squared_error = 0.0\nsamples = 1\nvalue = 127500.0"] ;
79 -> 80 ;
81 [label="squared_error = 0.0\nsamples = 1\nvalue = 138500.0"] ;
79 -> 81 ;
82 [label="x[84] <= -0.133\nsquared_error = 47722222.222\nsamples = 6\nvalue = 120833.333"] ;
78 -> 82 ;
83 [label="x[68] <= 0.5\nsquared_error = 28666666.667\nsamples = 3\nvalue = 116000.0"] ;
82 -> 83 ;
84 [label="x[80] <= 0.5\nsquared_error = 16000000.0\nsamples = 2\nvalue = 119000.0"] ;
83 -> 84 ;
85 [label="squared_error = 0.0\nsamples = 1\nvalue = 123000.0"] ;
84 -> 85 ;
86 [label="squared_error = 0.0\nsamples = 1\nvalue = 115000.0"] ;
84 -> 86 ;
87 [label="squared_error = 0.0\nsamples = 1\nvalue = 110000.0"] ;
83 -> 87 ;
88 [label="x[84] <= 0.281\nsquared_error = 20055555.556\nsamples = 3\nvalue = 125666.667"] ;
82 -> 88 ;
89 [label="x[33] <= 0.5\nsquared_error = 1562500.0\nsamples = 2\nvalue = 128750.0"] ;
88 -> 89 ;
90 [label="squared_error = 0.0\nsamples = 1\nvalue = 127500.0"] ;
89 -> 90 ;
91 [label="squared_error = 0.0\nsamples = 1\nvalue = 130000.0"] ;
89 -> 91 ;
92 [label="squared_error = 0.0\nsamples = 1\nvalue = 119500.0"] ;
88 -> 92 ;
93 [label="x[84] <= -1.54\nsquared_error = 297199058.16\nsamples = 24\nvalue = 118147.917"] ;
23 -> 93 ;
94 [label="x[80] <= 0.5\nsquared_error = 351171875.0\nsamples = 4\nvalue = 97625.0"] ;
93 -> 94 ;
95 [label="squared_error = 0.0\nsamples = 1\nvalue = 130000.0"] ;
94 -> 95 ;
96 [label="x[91] <= -1.724\nsquared_error = 2388888.889\nsamples = 3\nvalue = 86833.333"] ;
94 -> 96 ;
97 [label="x[24] <= 0.5\nsquared_error = 62500.0\nsamples = 2\nvalue = 85750.0"] ;
96 -> 97 ;
98 [label="squared_error = 0.0\nsamples = 1\nvalue = 85500.0"] ;
97 -> 98 ;
99 [label="squared_error = 0.0\nsamples = 1\nvalue = 86000.0"] ;
97 -> 99 ;
100 [label="squared_error = 0.0\nsamples = 1\nvalue = 89000.0"] ;
96 -> 100 ;
101 [label="x[3] <= 0.5\nsquared_error = 185318868.75\nsamples = 20\nvalue = 122252.5"] ;
93 -> 101 ;
102 [label="x[84] <= -0.646\nsquared_error = 144368130.194\nsamples = 19\nvalue = 123844.737"] ;
101 -> 102 ;
103 [label="x[84] <= -0.928\nsquared_error = 35311428.571\nsamples = 7\nvalue = 115300.0"] ;
102 -> 103 ;
104 [label="x[82] <= -0.447\nsquared_error = 36800000.0\nsamples = 5\nvalue = 113500.0"] ;
103 -> 104 ;
105 [label="x[25] <= 0.5\nsquared_error = 5388888.889\nsamples = 3\nvalue = 118166.667"] ;
104 -> 105 ;
106 [label="x[82] <= -0.458\nsquared_error = 562500.0\nsamples = 2\nvalue = 119750.0"] ;
105 -> 106 ;
107 [label="squared_error = 0.0\nsamples = 1\nvalue = 120500.0"] ;
106 -> 107 ;
108 [label="squared_error = 0.0\nsamples = 1\nvalue = 119000.0"] ;
106 -> 108 ;
109 [label="squared_error = 0.0\nsamples = 1\nvalue = 115000.0"] ;
105 -> 109 ;
110 [label="x[89] <= -1.261\nsquared_error = 2250000.0\nsamples = 2\nvalue = 106500.0"] ;
104 -> 110 ;
111 [label="squared_error = 0.0\nsamples = 1\nvalue = 108000.0"] ;
110 -> 111 ;
112 [label="squared_error = 0.0\nsamples = 1\nvalue = 105000.0"] ;
110 -> 112 ;
113 [label="x[40] <= 0.5\nsquared_error = 3240000.0\nsamples = 2\nvalue = 119800.0"] ;
103 -> 113 ;
114 [label="squared_error = 0.0\nsamples = 1\nvalue = 121600.0"] ;
113 -> 114 ;
115 [label="squared_error = 0.0\nsamples = 1\nvalue = 118000.0"] ;
113 -> 115 ;
116 [label="x[27] <= 0.5\nsquared_error = 140549357.639\nsamples = 12\nvalue = 128829.167"] ;
102 -> 116 ;
117 [label="x[21] <= 0.5\nsquared_error = 103879462.81\nsamples = 11\nvalue = 130859.091"] ;
116 -> 117 ;
118 [label="x[82] <= -0.215\nsquared_error = 21147448.98\nsamples = 7\nvalue = 127292.857"] ;
117 -> 118 ;
119 [label="x[81] <= 0.5\nsquared_error = 10764722.222\nsamples = 6\nvalue = 125883.333"] ;
118 -> 119 ;
120 [label="x[84] <= -0.216\nsquared_error = 4610400.0\nsamples = 5\nvalue = 127060.0"] ;
119 -> 120 ;
121 [label="x[89] <= -1.261\nsquared_error = 202500.0\nsamples = 2\nvalue = 129450.0"] ;
120 -> 121 ;
122 [label="squared_error = 0.0\nsamples = 1\nvalue = 129000.0"] ;
121 -> 122 ;
123 [label="squared_error = 0.0\nsamples = 1\nvalue = 129900.0"] ;
121 -> 123 ;
124 [label="x[66] <= 0.5\nsquared_error = 1202222.222\nsamples = 3\nvalue = 125466.667"] ;
120 -> 124 ;
125 [label="squared_error = 0.0\nsamples = 1\nvalue = 124500.0"] ;
124 -> 125 ;
126 [label="x[93] <= -1.203\nsquared_error = 1102500.0\nsamples = 2\nvalue = 125950.0"] ;
124 -> 126 ;
127 [label="squared_error = 0.0\nsamples = 1\nvalue = 124900.0"] ;
126 -> 127 ;
128 [label="squared_error = 0.0\nsamples = 1\nvalue = 127000.0"] ;
126 -> 128 ;
129 [label="squared_error = 0.0\nsamples = 1\nvalue = 120000.0"] ;
119 -> 129 ;
130 [label="squared_error = 0.0\nsamples = 1\nvalue = 135750.0"] ;
118 -> 130 ;
131 [label="x[42] <= 0.5\nsquared_error = 187455000.0\nsamples = 4\nvalue = 137100.0"] ;
117 -> 131 ;
132 [label="x[62] <= 0.5\nsquared_error = 16000000.0\nsamples = 2\nvalue = 149000.0"] ;
131 -> 132 ;
133 [label="squared_error = 0.0\nsamples = 1\nvalue = 153000.0"] ;
132 -> 133 ;
134 [label="squared_error = 0.0\nsamples = 1\nvalue = 145000.0"] ;
132 -> 134 ;
135 [label="x[94] <= 1.248\nsquared_error = 75690000.0\nsamples = 2\nvalue = 125200.0"] ;
131 -> 135 ;
136 [label="squared_error = 0.0\nsamples = 1\nvalue = 133900.0"] ;
135 -> 136 ;
137 [label="squared_error = 0.0\nsamples = 1\nvalue = 116500.0"] ;
135 -> 137 ;
138 [label="squared_error = 0.0\nsamples = 1\nvalue = 106500.0"] ;
116 -> 138 ;
139 [label="squared_error = 0.0\nsamples = 1\nvalue = 92000.0"] ;
101 -> 139 ;
140 [label="x[62] <= 0.5\nsquared_error = 306308489.44\nsamples = 33\nvalue = 128421.212"] ;
6 -> 140 ;
141 [label="x[26] <= 0.5\nsquared_error = 315256838.134\nsamples = 27\nvalue = 126153.704"] ;
140 -> 141 ;
142 [label="x[51] <= 0.5\nsquared_error = 224858290.289\nsamples = 22\nvalue = 129897.727"] ;
141 -> 142 ;
143 [label="x[24] <= 0.5\nsquared_error = 119565000.0\nsamples = 4\nvalue = 113700.0"] ;
142 -> 143 ;
144 [label="x[82] <= -0.501\nsquared_error = 10580000.0\nsamples = 3\nvalue = 107600.0"] ;
143 -> 144 ;
145 [label="squared_error = 0.0\nsamples = 1\nvalue = 109900.0"] ;
144 -> 145 ;
146 [label="x[27] <= 0.5\nsquared_error = 11902500.0\nsamples = 2\nvalue = 106450.0"] ;
144 -> 146 ;
147 [label="squared_error = 0.0\nsamples = 1\nvalue = 103000.0"] ;
146 -> 147 ;
148 [label="squared_error = 0.0\nsamples = 1\nvalue = 109900.0"] ;
146 -> 148 ;
149 [label="squared_error = 0.0\nsamples = 1\nvalue = 132000.0"] ;
143 -> 149 ;
150 [label="x[80] <= 0.5\nsquared_error = 176996797.84\nsamples = 18\nvalue = 133497.222"] ;
142 -> 150 ;
151 [label="x[79] <= 0.5\nsquared_error = 22562500.0\nsamples = 2\nvalue = 148750.0"] ;
150 -> 151 ;
152 [label="squared_error = 0.0\nsamples = 1\nvalue = 144000.0"] ;
151 -> 152 ;
153 [label="squared_error = 0.0\nsamples = 1\nvalue = 153500.0"] ;
151 -> 153 ;
154 [label="x[40] <= 0.5\nsquared_error = 163585068.359\nsamples = 16\nvalue = 131590.625"] ;
150 -> 154 ;
155 [label="x[94] <= -0.246\nsquared_error = 150484145.408\nsamples = 14\nvalue = 133282.143"] ;
154 -> 155 ;
156 [label="x[14] <= 0.5\nsquared_error = 193094791.667\nsamples = 6\nvalue = 125025.0"] ;
155 -> 156 ;
157 [label="x[82] <= -0.222\nsquared_error = 135541666.667\nsamples = 3\nvalue = 130250.0"] ;
156 -> 157 ;
158 [label="squared_error = 0.0\nsamples = 1\nvalue = 115000.0"] ;
157 -> 158 ;
159 [label="x[82] <= -0.104\nsquared_error = 28890625.0\nsamples = 2\nvalue = 137875.0"] ;
157 -> 159 ;
160 [label="squared_error = 0.0\nsamples = 1\nvalue = 132500.0"] ;
159 -> 160 ;
161 [label="squared_error = 0.0\nsamples = 1\nvalue = 143250.0"] ;
159 -> 161 ;
162 [label="x[82] <= -0.173\nsquared_error = 196046666.667\nsamples = 3\nvalue = 119800.0"] ;
156 -> 162 ;
163 [label="x[84] <= -0.613\nsquared_error = 217562500.0\nsamples = 2\nvalue = 114750.0"] ;
162 -> 163 ;
164 [label="squared_error = 0.0\nsamples = 1\nvalue = 100000.0"] ;
163 -> 164 ;
165 [label="squared_error = 0.0\nsamples = 1\nvalue = 129500.0"] ;
163 -> 165 ;
166 [label="squared_error = 0.0\nsamples = 1\nvalue = 129900.0"] ;
162 -> 166 ;
167 [label="x[87] <= -0.487\nsquared_error = 29039375.0\nsamples = 8\nvalue = 139475.0"] ;
155 -> 167 ;
168 [label="x[89] <= -1.261\nsquared_error = 4226400.0\nsamples = 5\nvalue = 135760.0"] ;
167 -> 168 ;
169 [label="x[5] <= 0.5\nsquared_error = 2802222.222\nsamples = 3\nvalue = 136966.667"] ;
168 -> 169 ;
170 [label="x[83] <= 0.836\nsquared_error = 1000000.0\nsamples = 2\nvalue = 138000.0"] ;
169 -> 170 ;
171 [label="squared_error = 0.0\nsamples = 1\nvalue = 137000.0"] ;
170 -> 171 ;
172 [label="squared_error = 0.0\nsamples = 1\nvalue = 139000.0"] ;
170 -> 172 ;
173 [label="squared_error = 0.0\nsamples = 1\nvalue = 134900.0"] ;
169 -> 173 ;
174 [label="x[83] <= 0.388\nsquared_error = 902500.0\nsamples = 2\nvalue = 133950.0"] ;
168 -> 174 ;
175 [label="squared_error = 0.0\nsamples = 1\nvalue = 134900.0"] ;
174 -> 175 ;
176 [label="squared_error = 0.0\nsamples = 1\nvalue = 133000.0"] ;
174 -> 176 ;
177 [label="x[93] <= -0.1\nsquared_error = 9055555.556\nsamples = 3\nvalue = 145666.667"] ;
167 -> 177 ;
178 [label="squared_error = 0.0\nsamples = 1\nvalue = 141500.0"] ;
177 -> 178 ;
179 [label="x[12] <= 0.5\nsquared_error = 562500.0\nsamples = 2\nvalue = 147750.0"] ;
177 -> 179 ;
180 [label="squared_error = 0.0\nsamples = 1\nvalue = 148500.0"] ;
179 -> 180 ;
181 [label="squared_error = 0.0\nsamples = 1\nvalue = 147000.0"] ;
179 -> 181 ;
182 [label="x[82] <= -0.22\nsquared_error = 95062500.0\nsamples = 2\nvalue = 119750.0"] ;
154 -> 182 ;
183 [label="squared_error = 0.0\nsamples = 1\nvalue = 129500.0"] ;
182 -> 183 ;
184 [label="squared_error = 0.0\nsamples = 1\nvalue = 110000.0"] ;
182 -> 184 ;
185 [label="x[84] <= -0.745\nsquared_error = 379949600.0\nsamples = 5\nvalue = 109680.0"] ;
141 -> 185 ;
186 [label="x[94] <= -0.246\nsquared_error = 156668888.889\nsamples = 3\nvalue = 96633.333"] ;
185 -> 186 ;
187 [label="squared_error = 0.0\nsamples = 1\nvalue = 79900.0"] ;
186 -> 187 ;
188 [label="x[55] <= 0.5\nsquared_error = 25000000.0\nsamples = 2\nvalue = 105000.0"] ;
186 -> 188 ;
189 [label="squared_error = 0.0\nsamples = 1\nvalue = 100000.0"] ;
188 -> 189 ;
190 [label="squared_error = 0.0\nsamples = 1\nvalue = 110000.0"] ;
188 -> 190 ;
191 [label="x[31] <= 0.5\nsquared_error = 76562500.0\nsamples = 2\nvalue = 129250.0"] ;
185 -> 191 ;
192 [label="squared_error = 0.0\nsamples = 1\nvalue = 120500.0"] ;
191 -> 192 ;
193 [label="squared_error = 0.0\nsamples = 1\nvalue = 138000.0"] ;
191 -> 193 ;
194 [label="x[84] <= -0.083\nsquared_error = 138786458.333\nsamples = 6\nvalue = 138625.0"] ;
140 -> 194 ;
195 [label="squared_error = 0.0\nsamples = 1\nvalue = 160000.0"] ;
194 -> 195 ;
196 [label="x[0] <= 0.5\nsquared_error = 56890000.0\nsamples = 5\nvalue = 134350.0"] ;
194 -> 196 ;
197 [label="x[83] <= -0.061\nsquared_error = 12847222.222\nsamples = 3\nvalue = 139583.333"] ;
196 -> 197 ;
198 [label="squared_error = 0.0\nsamples = 1\nvalue = 135000.0"] ;
197 -> 198 ;
199 [label="x[84] <= 0.182\nsquared_error = 3515625.0\nsamples = 2\nvalue = 141875.0"] ;
197 -> 199 ;
200 [label="squared_error = 0.0\nsamples = 1\nvalue = 143750.0"] ;
199 -> 200 ;
201 [label="squared_error = 0.0\nsamples = 1\nvalue = 140000.0"] ;
199 -> 201 ;
202 [label="x[94] <= -0.993\nsquared_error = 20250000.0\nsamples = 2\nvalue = 126500.0"] ;
196 -> 202 ;
203 [label="squared_error = 0.0\nsamples = 1\nvalue = 131000.0"] ;
202 -> 203 ;
204 [label="squared_error = 0.0\nsamples = 1\nvalue = 122000.0"] ;
202 -> 204 ;
205 [label="x[87] <= -0.487\nsquared_error = 678266960.023\nsamples = 127\nvalue = 130155.764"] ;
5 -> 205 ;
206 [label="x[83] <= -0.958\nsquared_error = 487090244.787\nsamples = 19\nvalue = 109825.053"] ;
205 -> 206 ;
207 [label="x[79] <= 0.5\nsquared_error = 212506666.667\nsamples = 3\nvalue = 78000.0"] ;
206 -> 207 ;
208 [label="x[33] <= 0.5\nsquared_error = 490000.0\nsamples = 2\nvalue = 67700.0"] ;
207 -> 208 ;
209 [label="squared_error = 0.0\nsamples = 1\nvalue = 67000.0"] ;
208 -> 209 ;
210 [label="squared_error = 0.0\nsamples = 1\nvalue = 68400.0"] ;
208 -> 210 ;
211 [label="squared_error = 0.0\nsamples = 1\nvalue = 98600.0"] ;
207 -> 211 ;
212 [label="x[25] <= 0.5\nsquared_error = 313060850.938\nsamples = 16\nvalue = 115792.25"] ;
206 -> 212 ;
213 [label="x[80] <= 0.5\nsquared_error = 113173123.556\nsamples = 9\nvalue = 107330.667"] ;
212 -> 213 ;
214 [label="squared_error = 0.0\nsamples = 1\nvalue = 124900.0"] ;
213 -> 214 ;
215 [label="x[41] <= 0.5\nsquared_error = 83911431.75\nsamples = 8\nvalue = 105134.5"] ;
213 -> 215 ;
216 [label="x[7] <= 0.5\nsquared_error = 40830764.408\nsamples = 7\nvalue = 102510.857"] ;
215 -> 216 ;
217 [label="x[62] <= 0.5\nsquared_error = 15151408.0\nsamples = 4\nvalue = 106444.0"] ;
216 -> 217 ;
218 [label="x[28] <= 0.5\nsquared_error = 1099150.222\nsamples = 3\nvalue = 104258.667"] ;
217 -> 218 ;
219 [label="squared_error = 0.0\nsamples = 2\nvalue = 105000.0"] ;
218 -> 219 ;
220 [label="squared_error = 0.0\nsamples = 1\nvalue = 102776.0"] ;
218 -> 220 ;
221 [label="squared_error = 0.0\nsamples = 1\nvalue = 113000.0"] ;
217 -> 221 ;
222 [label="x[84] <= -0.216\nsquared_error = 26942222.222\nsamples = 3\nvalue = 97266.667"] ;
216 -> 222 ;
223 [label="x[2] <= 0.5\nsquared_error = 810000.0\nsamples = 2\nvalue = 100900.0"] ;
222 -> 223 ;
224 [label="squared_error = 0.0\nsamples = 1\nvalue = 100000.0"] ;
223 -> 224 ;
225 [label="squared_error = 0.0\nsamples = 1\nvalue = 101800.0"] ;
223 -> 225 ;
226 [label="squared_error = 0.0\nsamples = 1\nvalue = 90000.0"] ;
222 -> 226 ;
227 [label="squared_error = 0.0\nsamples = 1\nvalue = 123500.0"] ;
215 -> 227 ;
228 [label="x[84] <= -1.06\nsquared_error = 359647755.102\nsamples = 7\nvalue = 126671.429"] ;
212 -> 228 ;
229 [label="squared_error = 0.0\nsamples = 1\nvalue = 87000.0"] ;
228 -> 229 ;
230 [label="x[47] <= 0.5\nsquared_error = 113568055.556\nsamples = 6\nvalue = 133283.333"] ;
228 -> 230 ;
231 [label="x[5] <= 0.5\nsquared_error = 71600000.0\nsamples = 5\nvalue = 130000.0"] ;
230 -> 231 ;
232 [label="x[84] <= -0.083\nsquared_error = 64222222.222\nsamples = 3\nvalue = 134333.333"] ;
231 -> 232 ;
233 [label="squared_error = 0.0\nsamples = 2\nvalue = 140000.0"] ;
232 -> 233 ;
234 [label="squared_error = 0.0\nsamples = 1\nvalue = 123000.0"] ;
232 -> 234 ;
235 [label="x[82] <= -0.322\nsquared_error = 12250000.0\nsamples = 2\nvalue = 123500.0"] ;
231 -> 235 ;
236 [label="squared_error = 0.0\nsamples = 1\nvalue = 120000.0"] ;
235 -> 236 ;
237 [label="squared_error = 0.0\nsamples = 1\nvalue = 127000.0"] ;
235 -> 237 ;
238 [label="squared_error = 0.0\nsamples = 1\nvalue = 149700.0"] ;
230 -> 238 ;
239 [label="x[82] <= -0.335\nsquared_error = 626390285.656\nsamples = 108\nvalue = 133732.463"] ;
205 -> 239 ;
240 [label="x[82] <= -0.822\nsquared_error = 400634880.248\nsamples = 24\nvalue = 114638.792"] ;
239 -> 240 ;
241 [label="x[85] <= -0.126\nsquared_error = 228277343.75\nsamples = 8\nvalue = 98562.5"] ;
240 -> 241 ;
242 [label="x[66] <= 0.5\nsquared_error = 160460000.0\nsamples = 5\nvalue = 90200.0"] ;
241 -> 242 ;
243 [label="x[41] <= 0.5\nsquared_error = 38125000.0\nsamples = 4\nvalue = 84500.0"] ;
242 -> 243 ;
244 [label="x[91] <= -1.724\nsquared_error = 10722222.222\nsamples = 3\nvalue = 87666.667"] ;
243 -> 244 ;
245 [label="squared_error = 0.0\nsamples = 1\nvalue = 91500.0"] ;
244 -> 245 ;
246 [label="x[82] <= -0.841\nsquared_error = 5062500.0\nsamples = 2\nvalue = 85750.0"] ;
244 -> 246 ;
247 [label="squared_error = 0.0\nsamples = 1\nvalue = 83500.0"] ;
246 -> 247 ;
248 [label="squared_error = 0.0\nsamples = 1\nvalue = 88000.0"] ;
246 -> 248 ;
249 [label="squared_error = 0.0\nsamples = 1\nvalue = 75000.0"] ;
243 -> 249 ;
250 [label="squared_error = 0.0\nsamples = 1\nvalue = 113000.0"] ;
242 -> 250 ;
251 [label="x[84] <= 0.016\nsquared_error = 30500000.0\nsamples = 3\nvalue = 112500.0"] ;
241 -> 251 ;
252 [label="x[84] <= -0.017\nsquared_error = 9000000.0\nsamples = 2\nvalue = 109000.0"] ;
251 -> 252 ;
253 [label="squared_error = 0.0\nsamples = 1\nvalue = 106000.0"] ;
252 -> 253 ;
254 [label="squared_error = 0.0\nsamples = 1\nvalue = 112000.0"] ;
252 -> 254 ;
255 [label="squared_error = 0.0\nsamples = 1\nvalue = 119500.0"] ;
251 -> 255 ;
256 [label="x[91] <= -1.724\nsquared_error = 292978283.184\nsamples = 16\nvalue = 122676.938"] ;
240 -> 256 ;
257 [label="x[85] <= -0.126\nsquared_error = 162562500.0\nsamples = 2\nvalue = 89250.0"] ;
256 -> 257 ;
258 [label="squared_error = 0.0\nsamples = 1\nvalue = 76500.0"] ;
257 -> 258 ;
259 [label="squared_error = 0.0\nsamples = 1\nvalue = 102000.0"] ;
257 -> 259 ;
260 [label="x[82] <= -0.552\nsquared_error = 129182962.311\nsamples = 14\nvalue = 127452.214"] ;
256 -> 260 ;
261 [label="x[86] <= 0.232\nsquared_error = 296425089.0\nsamples = 2\nvalue = 142217.0"] ;
260 -> 261 ;
262 [label="squared_error = 0.0\nsamples = 1\nvalue = 159434.0"] ;
261 -> 262 ;
263 [label="squared_error = 0.0\nsamples = 1\nvalue = 125000.0"] ;
261 -> 263 ;
264 [label="x[93] <= 1.37\nsquared_error = 58920600.076\nsamples = 12\nvalue = 124991.417"] ;
260 -> 264 ;
265 [label="x[83] <= -0.061\nsquared_error = 41690156.413\nsamples = 11\nvalue = 126363.364"] ;
264 -> 265 ;
266 [label="x[66] <= 0.5\nsquared_error = 3400966.222\nsamples = 3\nvalue = 117607.333"] ;
265 -> 266 ;
267 [label="x[23] <= 0.5\nsquared_error = 2809.0\nsamples = 2\nvalue = 118911.0"] ;
266 -> 267 ;
268 [label="squared_error = 0.0\nsamples = 1\nvalue = 118964.0"] ;
267 -> 268 ;
269 [label="squared_error = 0.0\nsamples = 1\nvalue = 118858.0"] ;
267 -> 269 ;
270 [label="squared_error = 0.0\nsamples = 1\nvalue = 115000.0"] ;
266 -> 270 ;
271 [label="x[87] <= 0.757\nsquared_error = 16516630.859\nsamples = 8\nvalue = 129646.875"] ;
265 -> 271 ;
272 [label="x[82] <= -0.355\nsquared_error = 8807321.429\nsamples = 7\nvalue = 128525.0"] ;
271 -> 272 ;
273 [label="x[94] <= -0.246\nsquared_error = 2123003.472\nsamples = 6\nvalue = 127445.833"] ;
272 -> 273 ;
274 [label="x[93] <= 0.451\nsquared_error = 113906.25\nsamples = 2\nvalue = 125837.5"] ;
273 -> 274 ;
275 [label="squared_error = 0.0\nsamples = 1\nvalue = 126175.0"] ;
274 -> 275 ;
276 [label="squared_error = 0.0\nsamples = 1\nvalue = 125500.0"] ;
274 -> 276 ;
277 [label="x[44] <= 0.5\nsquared_error = 1187500.0\nsamples = 4\nvalue = 128250.0"] ;
273 -> 277 ;
278 [label="x[82] <= -0.401\nsquared_error = 250000.0\nsamples = 2\nvalue = 127500.0"] ;
277 -> 278 ;
279 [label="squared_error = 0.0\nsamples = 1\nvalue = 128000.0"] ;
278 -> 279 ;
280 [label="squared_error = 0.0\nsamples = 1\nvalue = 127000.0"] ;
278 -> 280 ;
281 [label="x[91] <= -0.36\nsquared_error = 1000000.0\nsamples = 2\nvalue = 129000.0"] ;
277 -> 281 ;
282 [label="squared_error = 0.0\nsamples = 1\nvalue = 128000.0"] ;
281 -> 282 ;
283 [label="squared_error = 0.0\nsamples = 1\nvalue = 130000.0"] ;
281 -> 283 ;
284 [label="squared_error = 0.0\nsamples = 1\nvalue = 135000.0"] ;
272 -> 284 ;
285 [label="squared_error = 0.0\nsamples = 1\nvalue = 137500.0"] ;
271 -> 285 ;
286 [label="squared_error = 0.0\nsamples = 1\nvalue = 109900.0"] ;
264 -> 286 ;
287 [label="x[85] <= 1.705\nsquared_error = 556968787.114\nsamples = 84\nvalue = 139187.798"] ;
239 -> 287 ;
288 [label="x[20] <= 0.5\nsquared_error = 447756972.133\nsamples = 82\nvalue = 137533.841"] ;
287 -> 288 ;
289 [label="x[86] <= 0.232\nsquared_error = 388450831.934\nsamples = 80\nvalue = 138840.938"] ;
288 -> 289 ;
290 [label="x[83] <= -0.061\nsquared_error = 398704966.0\nsamples = 58\nvalue = 135351.293"] ;
289 -> 290 ;
291 [label="x[82] <= -0.031\nsquared_error = 362866974.826\nsamples = 24\nvalue = 128052.083"] ;
290 -> 291 ;
292 [label="x[82] <= -0.137\nsquared_error = 290284875.0\nsamples = 20\nvalue = 132575.0"] ;
291 -> 292 ;
293 [label="x[91] <= -1.724\nsquared_error = 131620763.889\nsamples = 12\nvalue = 127508.333"] ;
292 -> 293 ;
294 [label="squared_error = 0.0\nsamples = 1\nvalue = 150000.0"] ;
293 -> 294 ;
295 [label="x[25] <= 0.5\nsquared_error = 93416859.504\nsamples = 11\nvalue = 125463.636"] ;
293 -> 295 ;
296 [label="x[93] <= -0.652\nsquared_error = 4000000.0\nsamples = 2\nvalue = 110000.0"] ;
295 -> 296 ;
297 [label="squared_error = 0.0\nsamples = 1\nvalue = 112000.0"] ;
296 -> 297 ;
298 [label="squared_error = 0.0\nsamples = 1\nvalue = 108000.0"] ;
296 -> 298 ;
299 [label="x[67] <= 0.5\nsquared_error = 48340000.0\nsamples = 9\nvalue = 128900.0"] ;
295 -> 299 ;
300 [label="x[47] <= 0.5\nsquared_error = 16225306.122\nsamples = 7\nvalue = 126157.143"] ;
299 -> 300 ;
301 [label="x[94] <= -0.993\nsquared_error = 7866666.667\nsamples = 6\nvalue = 124900.0"] ;
300 -> 301 ;
302 [label="x[0] <= 0.5\nsquared_error = 6502500.0\nsamples = 2\nvalue = 122450.0"] ;
301 -> 302 ;
303 [label="squared_error = 0.0\nsamples = 1\nvalue = 125000.0"] ;
302 -> 303 ;
304 [label="squared_error = 0.0\nsamples = 1\nvalue = 119900.0"] ;
302 -> 304 ;
305 [label="x[94] <= 0.501\nsquared_error = 4046875.0\nsamples = 4\nvalue = 126125.0"] ;
301 -> 305 ;
306 [label="x[80] <= 0.5\nsquared_error = 1000000.0\nsamples = 2\nvalue = 128000.0"] ;
305 -> 306 ;
307 [label="squared_error = 0.0\nsamples = 1\nvalue = 127000.0"] ;
306 -> 307 ;
308 [label="squared_error = 0.0\nsamples = 1\nvalue = 129000.0"] ;
306 -> 308 ;
309 [label="x[7] <= 0.5\nsquared_error = 62500.0\nsamples = 2\nvalue = 124250.0"] ;
305 -> 309 ;
310 [label="squared_error = 0.0\nsamples = 1\nvalue = 124500.0"] ;
309 -> 310 ;
311 [label="squared_error = 0.0\nsamples = 1\nvalue = 124000.0"] ;
309 -> 311 ;
312 [label="squared_error = 0.0\nsamples = 1\nvalue = 133700.0"] ;
300 -> 312 ;
313 [label="x[16] <= 0.5\nsquared_error = 42250000.0\nsamples = 2\nvalue = 138500.0"] ;
299 -> 313 ;
314 [label="squared_error = 0.0\nsamples = 1\nvalue = 145000.0"] ;
313 -> 314 ;
315 [label="squared_error = 0.0\nsamples = 1\nvalue = 132000.0"] ;
313 -> 315 ;
316 [label="x[84] <= 0.116\nsquared_error = 432014375.0\nsamples = 8\nvalue = 140175.0"] ;
292 -> 316 ;
317 [label="x[53] <= 0.5\nsquared_error = 72672222.222\nsamples = 6\nvalue = 130233.333"] ;
316 -> 317 ;
318 [label="x[51] <= 0.5\nsquared_error = 48293600.0\nsamples = 5\nvalue = 132780.0"] ;
317 -> 318 ;
319 [label="squared_error = 0.0\nsamples = 1\nvalue = 119000.0"] ;
318 -> 319 ;
320 [label="x[68] <= 0.5\nsquared_error = 1026875.0\nsamples = 4\nvalue = 136225.0"] ;
318 -> 320 ;
321 [label="x[30] <= 0.5\nsquared_error = 646666.667\nsamples = 3\nvalue = 135800.0"] ;
320 -> 321 ;
322 [label="x[62] <= 0.5\nsquared_error = 62500.0\nsamples = 2\nvalue = 135250.0"] ;
321 -> 322 ;
323 [label="squared_error = 0.0\nsamples = 1\nvalue = 135000.0"] ;
322 -> 323 ;
324 [label="squared_error = 0.0\nsamples = 1\nvalue = 135500.0"] ;
322 -> 324 ;
325 [label="squared_error = 0.0\nsamples = 1\nvalue = 136900.0"] ;
321 -> 325 ;
326 [label="squared_error = 0.0\nsamples = 1\nvalue = 137500.0"] ;
320 -> 326 ;
327 [label="squared_error = 0.0\nsamples = 1\nvalue = 117500.0"] ;
317 -> 327 ;
328 [label="x[26] <= 0.5\nsquared_error = 324000000.0\nsamples = 2\nvalue = 170000.0"] ;
316 -> 328 ;
329 [label="squared_error = 0.0\nsamples = 1\nvalue = 188000.0"] ;
328 -> 329 ;
330 [label="squared_error = 0.0\nsamples = 1\nvalue = 152000.0"] ;
328 -> 330 ;
331 [label="x[44] <= 0.5\nsquared_error = 112074218.75\nsamples = 4\nvalue = 105437.5"] ;
291 -> 331 ;
332 [label="x[51] <= 0.5\nsquared_error = 1000000.0\nsamples = 2\nvalue = 116000.0"] ;
331 -> 332 ;
333 [label="squared_error = 0.0\nsamples = 1\nvalue = 115000.0"] ;
332 -> 333 ;
334 [label="squared_error = 0.0\nsamples = 1\nvalue = 117000.0"] ;
332 -> 334 ;
335 [label="x[71] <= 0.5\nsquared_error = 15625.0\nsamples = 2\nvalue = 94875.0"] ;
331 -> 335 ;
336 [label="squared_error = 0.0\nsamples = 1\nvalue = 94750.0"] ;
335 -> 336 ;
337 [label="squared_error = 0.0\nsamples = 1\nvalue = 95000.0"] ;
335 -> 337 ;
338 [label="x[87] <= 3.866\nsquared_error = 359846990.16\nsamples = 34\nvalue = 140503.676"] ;
290 -> 338 ;
339 [label="x[26] <= 0.5\nsquared_error = 260233882.002\nsamples = 33\nvalue = 138700.758"] ;
338 -> 339 ;
340 [label="x[14] <= 0.5\nsquared_error = 196584925.861\nsamples = 28\nvalue = 136040.179"] ;
339 -> 340 ;
341 [label="x[69] <= 0.5\nsquared_error = 65808593.75\nsamples = 8\nvalue = 144187.5"] ;
340 -> 341 ;
342 [label="x[72] <= 0.5\nsquared_error = 18171875.0\nsamples = 4\nvalue = 150625.0"] ;
341 -> 342 ;
343 [label="x[21] <= 0.5\nsquared_error = 10166666.667\nsamples = 3\nvalue = 152500.0"] ;
342 -> 343 ;
344 [label="x[84] <= -0.331\nsquared_error = 10562500.0\nsamples = 2\nvalue = 151250.0"] ;
343 -> 344 ;
345 [label="squared_error = 0.0\nsamples = 1\nvalue = 148000.0"] ;
344 -> 345 ;
346 [label="squared_error = 0.0\nsamples = 1\nvalue = 154500.0"] ;
344 -> 346 ;
347 [label="squared_error = 0.0\nsamples = 1\nvalue = 155000.0"] ;
343 -> 347 ;
348 [label="squared_error = 0.0\nsamples = 1\nvalue = 145000.0"] ;
342 -> 348 ;
349 [label="x[82] <= 0.012\nsquared_error = 30562500.0\nsamples = 4\nvalue = 137750.0"] ;
341 -> 349 ;
350 [label="x[7] <= 0.5\nsquared_error = 2722222.222\nsamples = 3\nvalue = 134666.667"] ;
349 -> 350 ;
351 [label="squared_error = 0.0\nsamples = 1\nvalue = 132500.0"] ;
350 -> 351 ;
352 [label="x[94] <= -0.619\nsquared_error = 562500.0\nsamples = 2\nvalue = 135750.0"] ;
350 -> 352 ;
353 [label="squared_error = 0.0\nsamples = 1\nvalue = 136500.0"] ;
352 -> 353 ;
354 [label="squared_error = 0.0\nsamples = 1\nvalue = 135000.0"] ;
352 -> 354 ;
355 [label="squared_error = 0.0\nsamples = 1\nvalue = 147000.0"] ;
349 -> 355 ;
356 [label="x[91] <= -1.724\nsquared_error = 211723304.688\nsamples = 20\nvalue = 132781.25"] ;
340 -> 356 ;
357 [label="x[30] <= 0.5\nsquared_error = 240250000.0\nsamples = 2\nvalue = 112000.0"] ;
356 -> 357 ;
358 [label="squared_error = 0.0\nsamples = 1\nvalue = 127500.0"] ;
357 -> 358 ;
359 [label="squared_error = 0.0\nsamples = 1\nvalue = 96500.0"] ;
357 -> 359 ;
360 [label="x[87] <= 0.757\nsquared_error = 155237579.09\nsamples = 18\nvalue = 135090.278"] ;
356 -> 360 ;
361 [label="x[84] <= -0.083\nsquared_error = 107600510.381\nsamples = 17\nvalue = 136866.176"] ;
360 -> 361 ;
362 [label="x[93] <= 0.083\nsquared_error = 84382072.222\nsamples = 15\nvalue = 134788.333"] ;
361 -> 362 ;
363 [label="x[44] <= 0.5\nsquared_error = 69878765.432\nsamples = 9\nvalue = 131711.111"] ;
362 -> 363 ;
364 [label="x[82] <= -0.27\nsquared_error = 51888888.889\nsamples = 6\nvalue = 135566.667"] ;
363 -> 364 ;
365 [label="x[10] <= 0.5\nsquared_error = 562500.0\nsamples = 2\nvalue = 126250.0"] ;
364 -> 365 ;
366 [label="squared_error = 0.0\nsamples = 1\nvalue = 127000.0"] ;
365 -> 366 ;
367 [label="squared_error = 0.0\nsamples = 1\nvalue = 125500.0"] ;
365 -> 367 ;
368 [label="x[7] <= 0.5\nsquared_error = 12451875.0\nsamples = 4\nvalue = 140225.0"] ;
364 -> 368 ;
369 [label="x[91] <= -0.36\nsquared_error = 6250000.0\nsamples = 2\nvalue = 137500.0"] ;
368 -> 369 ;
370 [label="squared_error = 0.0\nsamples = 1\nvalue = 135000.0"] ;
369 -> 370 ;
371 [label="squared_error = 0.0\nsamples = 1\nvalue = 140000.0"] ;
369 -> 371 ;
372 [label="x[47] <= 0.5\nsquared_error = 3802500.0\nsamples = 2\nvalue = 142950.0"] ;
368 -> 372 ;
373 [label="squared_error = 0.0\nsamples = 1\nvalue = 144900.0"] ;
372 -> 373 ;
374 [label="squared_error = 0.0\nsamples = 1\nvalue = 141000.0"] ;
372 -> 374 ;
375 [label="x[83] <= 0.836\nsquared_error = 16666666.667\nsamples = 3\nvalue = 124000.0"] ;
363 -> 375 ;
376 [label="x[25] <= 0.5\nsquared_error = 6250000.0\nsamples = 2\nvalue = 126500.0"] ;
375 -> 376 ;
377 [label="squared_error = 0.0\nsamples = 1\nvalue = 124000.0"] ;
376 -> 377 ;
378 [label="squared_error = 0.0\nsamples = 1\nvalue = 129000.0"] ;
376 -> 378 ;
379 [label="squared_error = 0.0\nsamples = 1\nvalue = 119000.0"] ;
375 -> 379 ;
380 [label="x[84] <= -1.209\nsquared_error = 70627170.139\nsamples = 6\nvalue = 139404.167"] ;
362 -> 380 ;
381 [label="squared_error = 0.0\nsamples = 1\nvalue = 153575.0"] ;
380 -> 381 ;
382 [label="x[69] <= 0.5\nsquared_error = 36557600.0\nsamples = 5\nvalue = 136570.0"] ;
380 -> 382 ;
383 [label="x[82] <= -0.166\nsquared_error = 52562500.0\nsamples = 2\nvalue = 131750.0"] ;
382 -> 383 ;
384 [label="squared_error = 0.0\nsamples = 1\nvalue = 139000.0"] ;
383 -> 384 ;
385 [label="squared_error = 0.0\nsamples = 1\nvalue = 124500.0"] ;
383 -> 385 ;
386 [label="x[91] <= -0.36\nsquared_error = 73888.889\nsamples = 3\nvalue = 139783.333"] ;
382 -> 386 ;
387 [label="squared_error = 0.0\nsamples = 1\nvalue = 139400.0"] ;
386 -> 387 ;
388 [label="x[66] <= 0.5\nsquared_error = 625.0\nsamples = 2\nvalue = 139975.0"] ;
386 -> 388 ;
389 [label="squared_error = 0.0\nsamples = 1\nvalue = 139950.0"] ;
388 -> 389 ;
390 [label="squared_error = 0.0\nsamples = 1\nvalue = 140000.0"] ;
388 -> 390 ;
391 [label="x[33] <= 0.5\nsquared_error = 6502500.0\nsamples = 2\nvalue = 152450.0"] ;
361 -> 391 ;
392 [label="squared_error = 0.0\nsamples = 1\nvalue = 149900.0"] ;
391 -> 392 ;
393 [label="squared_error = 0.0\nsamples = 1\nvalue = 155000.0"] ;
391 -> 393 ;
394 [label="squared_error = 0.0\nsamples = 1\nvalue = 104900.0"] ;
360 -> 394 ;
395 [label="x[89] <= 0.581\nsquared_error = 355040000.0\nsamples = 5\nvalue = 153600.0"] ;
339 -> 395 ;
396 [label="x[85] <= -0.126\nsquared_error = 155000000.0\nsamples = 4\nvalue = 146000.0"] ;
395 -> 396 ;
397 [label="x[67] <= 0.5\nsquared_error = 144000000.0\nsamples = 2\nvalue = 155000.0"] ;
396 -> 397 ;
398 [label="squared_error = 0.0\nsamples = 1\nvalue = 143000.0"] ;
397 -> 398 ;
399 [label="squared_error = 0.0\nsamples = 1\nvalue = 167000.0"] ;
397 -> 399 ;
400 [label="x[21] <= 0.5\nsquared_error = 4000000.0\nsamples = 2\nvalue = 137000.0"] ;
396 -> 400 ;
401 [label="squared_error = 0.0\nsamples = 1\nvalue = 135000.0"] ;
400 -> 401 ;
402 [label="squared_error = 0.0\nsamples = 1\nvalue = 139000.0"] ;
400 -> 402 ;
403 [label="squared_error = 0.0\nsamples = 1\nvalue = 184000.0"] ;
395 -> 403 ;
404 [label="squared_error = 0.0\nsamples = 1\nvalue = 200000.0"] ;
338 -> 404 ;
405 [label="x[69] <= 0.5\nsquared_error = 244673099.174\nsamples = 22\nvalue = 148040.909"] ;
289 -> 405 ;
406 [label="x[78] <= 0.5\nsquared_error = 70867479.339\nsamples = 11\nvalue = 159904.545"] ;
405 -> 406 ;
407 [label="x[94] <= -0.246\nsquared_error = 46551111.111\nsamples = 9\nvalue = 157283.333"] ;
406 -> 407 ;
408 [label="x[52] <= 0.5\nsquared_error = 8442500.0\nsamples = 4\nvalue = 153350.0"] ;
407 -> 408 ;
409 [label="x[82] <= -0.061\nsquared_error = 6268888.889\nsamples = 3\nvalue = 154466.667"] ;
408 -> 409 ;
410 [label="squared_error = 0.0\nsamples = 1\nvalue = 157900.0"] ;
409 -> 410 ;
411 [label="x[14] <= 0.5\nsquared_error = 562500.0\nsamples = 2\nvalue = 152750.0"] ;
409 -> 411 ;
412 [label="squared_error = 0.0\nsamples = 1\nvalue = 152000.0"] ;
411 -> 412 ;
413 [label="squared_error = 0.0\nsamples = 1\nvalue = 153500.0"] ;
411 -> 413 ;
414 [label="squared_error = 0.0\nsamples = 1\nvalue = 150000.0"] ;
408 -> 414 ;
415 [label="x[68] <= 0.5\nsquared_error = 54759600.0\nsamples = 5\nvalue = 160430.0"] ;
407 -> 415 ;
416 [label="x[84] <= -0.133\nsquared_error = 36375000.0\nsamples = 3\nvalue = 155750.0"] ;
415 -> 416 ;
417 [label="squared_error = 0.0\nsamples = 1\nvalue = 147500.0"] ;
416 -> 417 ;
418 [label="x[89] <= -0.033\nsquared_error = 3515625.0\nsamples = 2\nvalue = 159875.0"] ;
416 -> 418 ;
419 [label="squared_error = 0.0\nsamples = 1\nvalue = 161750.0"] ;
418 -> 419 ;
420 [label="squared_error = 0.0\nsamples = 1\nvalue = 158000.0"] ;
418 -> 420 ;
421 [label="x[87] <= 0.757\nsquared_error = 202500.0\nsamples = 2\nvalue = 167450.0"] ;
415 -> 421 ;
422 [label="squared_error = 0.0\nsamples = 1\nvalue = 167000.0"] ;
421 -> 422 ;
423 [label="squared_error = 0.0\nsamples = 1\nvalue = 167900.0"] ;
421 -> 423 ;
424 [label="x[72] <= 0.5\nsquared_error = 10240000.0\nsamples = 2\nvalue = 171700.0"] ;
406 -> 424 ;
425 [label="squared_error = 0.0\nsamples = 1\nvalue = 168500.0"] ;
424 -> 425 ;
426 [label="squared_error = 0.0\nsamples = 1\nvalue = 174900.0"] ;
424 -> 426 ;
427 [label="x[82] <= -0.119\nsquared_error = 136986983.471\nsamples = 11\nvalue = 136177.273"] ;
405 -> 427 ;
428 [label="x[82] <= -0.281\nsquared_error = 50914400.0\nsamples = 5\nvalue = 126690.0"] ;
427 -> 428 ;
429 [label="squared_error = 0.0\nsamples = 1\nvalue = 138000.0"] ;
428 -> 429 ;
430 [label="x[36] <= 0.5\nsquared_error = 23669218.75\nsamples = 4\nvalue = 123862.5"] ;
428 -> 430 ;
431 [label="x[91] <= -1.724\nsquared_error = 4083888.889\nsamples = 3\nvalue = 126483.333"] ;
430 -> 431 ;
432 [label="squared_error = 0.0\nsamples = 1\nvalue = 128950.0"] ;
431 -> 432 ;
433 [label="x[84] <= -0.315\nsquared_error = 1562500.0\nsamples = 2\nvalue = 125250.0"] ;
431 -> 433 ;
434 [label="squared_error = 0.0\nsamples = 1\nvalue = 126500.0"] ;
433 -> 434 ;
435 [label="squared_error = 0.0\nsamples = 1\nvalue = 124000.0"] ;
433 -> 435 ;
436 [label="squared_error = 0.0\nsamples = 1\nvalue = 116000.0"] ;
430 -> 436 ;
437 [label="x[82] <= 0.005\nsquared_error = 71201388.889\nsamples = 6\nvalue = 144083.333"] ;
427 -> 437 ;
438 [label="x[94] <= 0.501\nsquared_error = 28400000.0\nsamples = 5\nvalue = 141000.0"] ;
437 -> 438 ;
439 [label="x[16] <= 0.5\nsquared_error = 30250000.0\nsamples = 2\nvalue = 145500.0"] ;
438 -> 439 ;
440 [label="squared_error = 0.0\nsamples = 1\nvalue = 151000.0"] ;
439 -> 440 ;
441 [label="squared_error = 0.0\nsamples = 1\nvalue = 140000.0"] ;
439 -> 441 ;
442 [label="x[74] <= 0.5\nsquared_error = 4666666.667\nsamples = 3\nvalue = 138000.0"] ;
438 -> 442 ;
443 [label="squared_error = 0.0\nsamples = 1\nvalue = 135000.0"] ;
442 -> 443 ;
444 [label="x[93] <= 0.083\nsquared_error = 250000.0\nsamples = 2\nvalue = 139500.0"] ;
442 -> 444 ;
445 [label="squared_error = 0.0\nsamples = 1\nvalue = 139000.0"] ;
444 -> 445 ;
446 [label="squared_error = 0.0\nsamples = 1\nvalue = 140000.0"] ;
444 -> 446 ;
447 [label="squared_error = 0.0\nsamples = 1\nvalue = 159500.0"] ;
437 -> 447 ;
448 [label="x[14] <= 0.5\nsquared_error = 18062500.0\nsamples = 2\nvalue = 85250.0"] ;
288 -> 448 ;
449 [label="squared_error = 0.0\nsamples = 1\nvalue = 81000.0"] ;
448 -> 449 ;
450 [label="squared_error = 0.0\nsamples = 1\nvalue = 89500.0"] ;
448 -> 450 ;
451 [label="x[86] <= 0.232\nsquared_error = 324000000.0\nsamples = 2\nvalue = 207000.0"] ;
287 -> 451 ;
452 [label="squared_error = 0.0\nsamples = 1\nvalue = 225000.0"] ;
451 -> 452 ;
453 [label="squared_error = 0.0\nsamples = 1\nvalue = 189000.0"] ;
451 -> 453 ;
454 [label="x[89] <= -0.647\nsquared_error = 760540681.847\nsamples = 118\nvalue = 143540.0"] ;
4 -> 454 ;
455 [label="x[13] <= 0.5\nsquared_error = 432208735.312\nsamples = 32\nvalue = 121313.531"] ;
454 -> 455 ;
456 [label="x[79] <= 0.5\nsquared_error = 376648237.014\nsamples = 31\nvalue = 119839.774"] ;
455 -> 456 ;
457 [label="x[25] <= 0.5\nsquared_error = 275492391.667\nsamples = 30\nvalue = 121755.0"] ;
456 -> 457 ;
458 [label="x[62] <= 0.5\nsquared_error = 124155025.0\nsamples = 10\nvalue = 110915.0"] ;
457 -> 458 ;
459 [label="x[93] <= -0.652\nsquared_error = 16244648.438\nsamples = 8\nvalue = 116143.75"] ;
458 -> 459 ;
460 [label="squared_error = 0.0\nsamples = 1\nvalue = 107500.0"] ;
459 -> 460 ;
461 [label="x[40] <= 0.5\nsquared_error = 6367040.816\nsamples = 7\nvalue = 117378.571"] ;
459 -> 461 ;
462 [label="x[33] <= 0.5\nsquared_error = 6651875.0\nsamples = 4\nvalue = 116225.0"] ;
461 -> 462 ;
463 [label="squared_error = 0.0\nsamples = 1\nvalue = 113000.0"] ;
462 -> 463 ;
464 [label="x[89] <= -1.261\nsquared_error = 4246666.667\nsamples = 3\nvalue = 117300.0"] ;
462 -> 464 ;
465 [label="squared_error = 0.0\nsamples = 1\nvalue = 115000.0"] ;
464 -> 465 ;
466 [label="x[87] <= -0.487\nsquared_error = 2402500.0\nsamples = 2\nvalue = 118450.0"] ;
464 -> 466 ;
467 [label="squared_error = 0.0\nsamples = 1\nvalue = 116900.0"] ;
466 -> 467 ;
468 [label="squared_error = 0.0\nsamples = 1\nvalue = 120000.0"] ;
466 -> 468 ;
469 [label="x[83] <= 1.733\nsquared_error = 1847222.222\nsamples = 3\nvalue = 118916.667"] ;
461 -> 469 ;
470 [label="x[55] <= 0.5\nsquared_error = 15625.0\nsamples = 2\nvalue = 119875.0"] ;
469 -> 470 ;
471 [label="squared_error = 0.0\nsamples = 1\nvalue = 119750.0"] ;
470 -> 471 ;
472 [label="squared_error = 0.0\nsamples = 1\nvalue = 120000.0"] ;
470 -> 472 ;
473 [label="squared_error = 0.0\nsamples = 1\nvalue = 117000.0"] ;
469 -> 473 ;
474 [label="x[94] <= -0.993\nsquared_error = 9000000.0\nsamples = 2\nvalue = 90000.0"] ;
458 -> 474 ;
475 [label="squared_error = 0.0\nsamples = 1\nvalue = 93000.0"] ;
474 -> 475 ;
476 [label="squared_error = 0.0\nsamples = 1\nvalue = 87000.0"] ;
474 -> 476 ;
477 [label="x[69] <= 0.5\nsquared_error = 263031875.0\nsamples = 20\nvalue = 127175.0"] ;
457 -> 477 ;
478 [label="x[82] <= -0.406\nsquared_error = 117246913.58\nsamples = 9\nvalue = 138055.556"] ;
477 -> 478 ;
479 [label="x[10] <= 0.5\nsquared_error = 3166666.667\nsamples = 3\nvalue = 126500.0"] ;
478 -> 479 ;
480 [label="x[57] <= 0.5\nsquared_error = 62500.0\nsamples = 2\nvalue = 127750.0"] ;
479 -> 480 ;
481 [label="squared_error = 0.0\nsamples = 1\nvalue = 128000.0"] ;
480 -> 481 ;
482 [label="squared_error = 0.0\nsamples = 1\nvalue = 127500.0"] ;
480 -> 482 ;
483 [label="squared_error = 0.0\nsamples = 1\nvalue = 124000.0"] ;
479 -> 483 ;
484 [label="x[40] <= 0.5\nsquared_error = 74138888.889\nsamples = 6\nvalue = 143833.333"] ;
478 -> 484 ;
485 [label="x[14] <= 0.5\nsquared_error = 59040000.0\nsamples = 5\nvalue = 141600.0"] ;
484 -> 485 ;
486 [label="squared_error = 0.0\nsamples = 1\nvalue = 153000.0"] ;
485 -> 486 ;
487 [label="x[42] <= 0.5\nsquared_error = 33187500.0\nsamples = 4\nvalue = 138750.0"] ;
485 -> 487 ;
488 [label="x[85] <= -0.126\nsquared_error = 2000000.0\nsamples = 3\nvalue = 142000.0"] ;
487 -> 488 ;
489 [label="squared_error = 0.0\nsamples = 1\nvalue = 140000.0"] ;
488 -> 489 ;
490 [label="squared_error = 0.0\nsamples = 2\nvalue = 143000.0"] ;
488 -> 490 ;
491 [label="squared_error = 0.0\nsamples = 1\nvalue = 129000.0"] ;
487 -> 491 ;
492 [label="squared_error = 0.0\nsamples = 1\nvalue = 155000.0"] ;
484 -> 492 ;
493 [label="x[84] <= -0.017\nsquared_error = 206198347.107\nsamples = 11\nvalue = 118272.727"] ;
477 -> 493 ;
494 [label="x[71] <= 0.5\nsquared_error = 127722222.222\nsamples = 9\nvalue = 123000.0"] ;
493 -> 494 ;
495 [label="x[51] <= 0.5\nsquared_error = 59887755.102\nsamples = 7\nvalue = 127428.571"] ;
494 -> 495 ;
496 [label="squared_error = 0.0\nsamples = 1\nvalue = 115000.0"] ;
495 -> 496 ;
497 [label="x[21] <= 0.5\nsquared_error = 39833333.333\nsamples = 6\nvalue = 129500.0"] ;
495 -> 497 ;
498 [label="x[66] <= 0.5\nsquared_error = 29671875.0\nsamples = 4\nvalue = 126625.0"] ;
497 -> 498 ;
499 [label="x[84] <= -0.083\nsquared_error = 7562500.0\nsamples = 2\nvalue = 131250.0"] ;
498 -> 499 ;
500 [label="squared_error = 0.0\nsamples = 1\nvalue = 134000.0"] ;
499 -> 500 ;
501 [label="squared_error = 0.0\nsamples = 1\nvalue = 128500.0"] ;
499 -> 501 ;
502 [label="x[16] <= 0.5\nsquared_error = 9000000.0\nsamples = 2\nvalue = 122000.0"] ;
498 -> 502 ;
503 [label="squared_error = 0.0\nsamples = 1\nvalue = 125000.0"] ;
502 -> 503 ;
504 [label="squared_error = 0.0\nsamples = 1\nvalue = 119000.0"] ;
502 -> 504 ;
505 [label="x[87] <= -0.487\nsquared_error = 10562500.0\nsamples = 2\nvalue = 135250.0"] ;
497 -> 505 ;
506 [label="squared_error = 0.0\nsamples = 1\nvalue = 132000.0"] ;
505 -> 506 ;
507 [label="squared_error = 0.0\nsamples = 1\nvalue = 138500.0"] ;
505 -> 507 ;
508 [label="x[53] <= 0.5\nsquared_error = 56250000.0\nsamples = 2\nvalue = 107500.0"] ;
494 -> 508 ;
509 [label="squared_error = 0.0\nsamples = 1\nvalue = 100000.0"] ;
508 -> 509 ;
510 [label="squared_error = 0.0\nsamples = 1\nvalue = 115000.0"] ;
508 -> 510 ;
511 [label="x[59] <= 0.5\nsquared_error = 6250000.0\nsamples = 2\nvalue = 97000.0"] ;
493 -> 511 ;
512 [label="squared_error = 0.0\nsamples = 1\nvalue = 99500.0"] ;
511 -> 512 ;
513 [label="squared_error = 0.0\nsamples = 1\nvalue = 94500.0"] ;
511 -> 513 ;
514 [label="squared_error = 0.0\nsamples = 1\nvalue = 62383.0"] ;
456 -> 514 ;
515 [label="squared_error = 0.0\nsamples = 1\nvalue = 167000.0"] ;
455 -> 515 ;
516 [label="x[35] <= 0.5\nsquared_error = 630492740.936\nsamples = 86\nvalue = 151810.314"] ;
454 -> 516 ;
517 [label="squared_error = 0.0\nsamples = 1\nvalue = 256000.0"] ;
516 -> 517 ;
518 [label="x[5] <= 0.5\nsquared_error = 508696157.494\nsamples = 85\nvalue = 150584.553"] ;
516 -> 518 ;
519 [label="x[0] <= 0.5\nsquared_error = 442677388.132\nsamples = 68\nvalue = 154289.515"] ;
518 -> 519 ;
520 [label="x[91] <= -0.36\nsquared_error = 245528926.793\nsamples = 13\nvalue = 138279.769"] ;
519 -> 520 ;
521 [label="x[69] <= 0.5\nsquared_error = 164222222.222\nsamples = 3\nvalue = 114666.667"] ;
520 -> 521 ;
522 [label="x[84] <= 0.248\nsquared_error = 12250000.0\nsamples = 2\nvalue = 123500.0"] ;
521 -> 522 ;
523 [label="squared_error = 0.0\nsamples = 1\nvalue = 127000.0"] ;
522 -> 523 ;
524 [label="squared_error = 0.0\nsamples = 1\nvalue = 120000.0"] ;
522 -> 524 ;
525 [label="squared_error = 0.0\nsamples = 1\nvalue = 97000.0"] ;
521 -> 525 ;
526 [label="x[25] <= 0.5\nsquared_error = 52465279.21\nsamples = 10\nvalue = 145363.7"] ;
520 -> 526 ;
527 [label="x[84] <= 0.182\nsquared_error = 35068888.889\nsamples = 3\nvalue = 135966.667"] ;
526 -> 527 ;
528 [label="x[83] <= 0.388\nsquared_error = 4202500.0\nsamples = 2\nvalue = 131950.0"] ;
527 -> 528 ;
529 [label="squared_error = 0.0\nsamples = 1\nvalue = 134000.0"] ;
528 -> 529 ;
530 [label="squared_error = 0.0\nsamples = 1\nvalue = 129900.0"] ;
528 -> 530 ;
531 [label="squared_error = 0.0\nsamples = 1\nvalue = 144000.0"] ;
527 -> 531 ;
532 [label="x[82] <= -0.738\nsquared_error = 5857057.429\nsamples = 7\nvalue = 149391.0"] ;
526 -> 532 ;
533 [label="x[94] <= 0.501\nsquared_error = 2860000.0\nsamples = 5\nvalue = 148200.0"] ;
532 -> 533 ;
534 [label="squared_error = 0.0\nsamples = 1\nvalue = 151000.0"] ;
533 -> 534 ;
535 [label="x[93] <= -0.468\nsquared_error = 1125000.0\nsamples = 4\nvalue = 147500.0"] ;
533 -> 535 ;
536 [label="squared_error = 0.0\nsamples = 1\nvalue = 148500.0"] ;
535 -> 536 ;
537 [label="x[83] <= -0.061\nsquared_error = 1055555.556\nsamples = 3\nvalue = 147166.667"] ;
535 -> 537 ;
538 [label="x[94] <= 1.248\nsquared_error = 250000.0\nsamples = 2\nvalue = 146500.0"] ;
537 -> 538 ;
539 [label="squared_error = 0.0\nsamples = 1\nvalue = 147000.0"] ;
538 -> 539 ;
540 [label="squared_error = 0.0\nsamples = 1\nvalue = 146000.0"] ;
538 -> 540 ;
541 [label="squared_error = 0.0\nsamples = 1\nvalue = 148500.0"] ;
537 -> 541 ;
542 [label="x[4] <= 0.5\nsquared_error = 937992.25\nsamples = 2\nvalue = 152368.5"] ;
532 -> 542 ;
543 [label="squared_error = 0.0\nsamples = 1\nvalue = 153337.0"] ;
542 -> 543 ;
544 [label="squared_error = 0.0\nsamples = 1\nvalue = 151400.0"] ;
542 -> 544 ;
545 [label="x[10] <= 0.5\nsquared_error = 414373714.05\nsamples = 55\nvalue = 158073.636"] ;
519 -> 545 ;
546 [label="x[85] <= -0.126\nsquared_error = 359368318.01\nsamples = 43\nvalue = 154765.116"] ;
545 -> 546 ;
547 [label="x[82] <= -0.267\nsquared_error = 285806488.889\nsamples = 30\nvalue = 150713.333"] ;
546 -> 547 ;
548 [label="x[60] <= 0.5\nsquared_error = 110888888.889\nsamples = 3\nvalue = 121333.333"] ;
547 -> 548 ;
549 [label="x[7] <= 0.5\nsquared_error = 12250000.0\nsamples = 2\nvalue = 128500.0"] ;
548 -> 549 ;
550 [label="squared_error = 0.0\nsamples = 1\nvalue = 125000.0"] ;
549 -> 550 ;
551 [label="squared_error = 0.0\nsamples = 1\nvalue = 132000.0"] ;
549 -> 551 ;
552 [label="squared_error = 0.0\nsamples = 1\nvalue = 107000.0"] ;
548 -> 552 ;
553 [label="x[90] <= 2.963\nsquared_error = 198675802.469\nsamples = 27\nvalue = 153977.778"] ;
547 -> 553 ;
554 [label="x[82] <= -0.149\nsquared_error = 154489940.828\nsamples = 26\nvalue = 152592.308"] ;
553 -> 554 ;
555 [label="x[67] <= 0.5\nsquared_error = 34330578.512\nsamples = 11\nvalue = 146681.818"] ;
554 -> 555 ;
556 [label="x[84] <= -0.381\nsquared_error = 19690000.0\nsamples = 10\nvalue = 145400.0"] ;
555 -> 556 ;
557 [label="x[42] <= 0.5\nsquared_error = 4040000.0\nsamples = 5\nvalue = 142900.0"] ;
556 -> 557 ;
558 [label="x[12] <= 0.5\nsquared_error = 296875.0\nsamples = 4\nvalue = 143875.0"] ;
557 -> 558 ;
559 [label="x[84] <= -1.077\nsquared_error = 55555.556\nsamples = 3\nvalue = 144166.667"] ;
558 -> 559 ;
560 [label="squared_error = 0.0\nsamples = 2\nvalue = 144000.0"] ;
559 -> 560 ;
561 [label="squared_error = 0.0\nsamples = 1\nvalue = 144500.0"] ;
559 -> 561 ;
562 [label="squared_error = 0.0\nsamples = 1\nvalue = 143000.0"] ;
558 -> 562 ;
563 [label="squared_error = 0.0\nsamples = 1\nvalue = 139000.0"] ;
557 -> 563 ;
564 [label="x[47] <= 0.5\nsquared_error = 22840000.0\nsamples = 5\nvalue = 147900.0"] ;
556 -> 564 ;
565 [label="x[33] <= 0.5\nsquared_error = 12796875.0\nsamples = 4\nvalue = 146125.0"] ;
564 -> 565 ;
566 [label="x[69] <= 0.5\nsquared_error = 2250000.0\nsamples = 2\nvalue = 149500.0"] ;
565 -> 566 ;
567 [label="squared_error = 0.0\nsamples = 1\nvalue = 148000.0"] ;
566 -> 567 ;
568 [label="squared_error = 0.0\nsamples = 1\nvalue = 151000.0"] ;
566 -> 568 ;
569 [label="x[57] <= 0.5\nsquared_error = 562500.0\nsamples = 2\nvalue = 142750.0"] ;
565 -> 569 ;
570 [label="squared_error = 0.0\nsamples = 1\nvalue = 143500.0"] ;
569 -> 570 ;
571 [label="squared_error = 0.0\nsamples = 1\nvalue = 142000.0"] ;
569 -> 571 ;
572 [label="squared_error = 0.0\nsamples = 1\nvalue = 155000.0"] ;
564 -> 572 ;
573 [label="squared_error = 0.0\nsamples = 1\nvalue = 159500.0"] ;
555 -> 573 ;
574 [label="x[84] <= -0.05\nsquared_error = 198201955.556\nsamples = 15\nvalue = 156926.667"] ;
554 -> 574 ;
575 [label="x[82] <= -0.085\nsquared_error = 173741388.889\nsamples = 12\nvalue = 153116.667"] ;
574 -> 575 ;
576 [label="x[66] <= 0.5\nsquared_error = 63561224.49\nsamples = 7\nvalue = 159785.714"] ;
575 -> 576 ;
577 [label="x[93] <= -1.02\nsquared_error = 25701388.889\nsamples = 6\nvalue = 162416.667"] ;
576 -> 577 ;
578 [label="squared_error = 0.0\nsamples = 1\nvalue = 153000.0"] ;
577 -> 578 ;
579 [label="x[84] <= -0.282\nsquared_error = 9560000.0\nsamples = 5\nvalue = 164300.0"] ;
577 -> 579 ;
580 [label="x[82] <= -0.132\nsquared_error = 3171875.0\nsamples = 4\nvalue = 165625.0"] ;
579 -> 580 ;
581 [label="x[83] <= -0.061\nsquared_error = 1000000.0\nsamples = 2\nvalue = 164000.0"] ;
580 -> 581 ;
582 [label="squared_error = 0.0\nsamples = 1\nvalue = 165000.0"] ;
581 -> 582 ;
583 [label="squared_error = 0.0\nsamples = 1\nvalue = 163000.0"] ;
581 -> 583 ;
584 [label="x[89] <= -0.033\nsquared_error = 62500.0\nsamples = 2\nvalue = 167250.0"] ;
580 -> 584 ;
585 [label="squared_error = 0.0\nsamples = 1\nvalue = 167500.0"] ;
584 -> 585 ;
586 [label="squared_error = 0.0\nsamples = 1\nvalue = 167000.0"] ;
584 -> 586 ;
587 [label="squared_error = 0.0\nsamples = 1\nvalue = 159000.0"] ;
579 -> 587 ;
588 [label="squared_error = 0.0\nsamples = 1\nvalue = 144000.0"] ;
576 -> 588 ;
589 [label="x[14] <= 0.5\nsquared_error = 178553600.0\nsamples = 5\nvalue = 143780.0"] ;
575 -> 589 ;
590 [label="x[90] <= 1.398\nsquared_error = 43335555.556\nsamples = 3\nvalue = 133966.667"] ;
589 -> 590 ;
591 [label="x[79] <= 0.5\nsquared_error = 3802500.0\nsamples = 2\nvalue = 129450.0"] ;
590 -> 591 ;
592 [label="squared_error = 0.0\nsamples = 1\nvalue = 127500.0"] ;
591 -> 592 ;
593 [label="squared_error = 0.0\nsamples = 1\nvalue = 131400.0"] ;
591 -> 593 ;
594 [label="squared_error = 0.0\nsamples = 1\nvalue = 143000.0"] ;
590 -> 594 ;
595 [label="x[94] <= 0.501\nsquared_error = 20250000.0\nsamples = 2\nvalue = 158500.0"] ;
589 -> 595 ;
596 [label="squared_error = 0.0\nsamples = 1\nvalue = 163000.0"] ;
595 -> 596 ;
597 [label="squared_error = 0.0\nsamples = 1\nvalue = 154000.0"] ;
595 -> 597 ;
598 [label="x[69] <= 0.5\nsquared_error = 5722222.222\nsamples = 3\nvalue = 172166.667"] ;
574 -> 598 ;
599 [label="x[94] <= -0.619\nsquared_error = 250000.0\nsamples = 2\nvalue = 170500.0"] ;
598 -> 599 ;
600 [label="squared_error = 0.0\nsamples = 1\nvalue = 170000.0"] ;
599 -> 600 ;
601 [label="squared_error = 0.0\nsamples = 1\nvalue = 171000.0"] ;
599 -> 601 ;
602 [label="squared_error = 0.0\nsamples = 1\nvalue = 175500.0"] ;
598 -> 602 ;
603 [label="squared_error = 0.0\nsamples = 1\nvalue = 190000.0"] ;
553 -> 603 ;
604 [label="x[94] <= -0.993\nsquared_error = 403813609.467\nsamples = 13\nvalue = 164115.385"] ;
546 -> 604 ;
605 [label="x[23] <= 0.5\nsquared_error = 189062500.0\nsamples = 2\nvalue = 193750.0"] ;
604 -> 605 ;
606 [label="squared_error = 0.0\nsamples = 1\nvalue = 207500.0"] ;
605 -> 606 ;
607 [label="squared_error = 0.0\nsamples = 1\nvalue = 180000.0"] ;
605 -> 607 ;
608 [label="x[89] <= 1.195\nsquared_error = 254152892.562\nsamples = 11\nvalue = 158727.273"] ;
604 -> 608 ;
609 [label="x[83] <= 0.836\nsquared_error = 175710000.0\nsamples = 10\nvalue = 161800.0"] ;
608 -> 609 ;
610 [label="x[26] <= 0.5\nsquared_error = 116833333.333\nsamples = 9\nvalue = 159000.0"] ;
609 -> 610 ;
611 [label="x[66] <= 0.5\nsquared_error = 99796875.0\nsamples = 8\nvalue = 157125.0"] ;
610 -> 611 ;
612 [label="x[93] <= 0.451\nsquared_error = 78201388.889\nsamples = 6\nvalue = 153583.333"] ;
611 -> 612 ;
613 [label="x[14] <= 0.5\nsquared_error = 22888888.889\nsamples = 3\nvalue = 145666.667"] ;
612 -> 613 ;
614 [label="squared_error = 0.0\nsamples = 1\nvalue = 139000.0"] ;
613 -> 614 ;
615 [label="x[84] <= 0.199\nsquared_error = 1000000.0\nsamples = 2\nvalue = 149000.0"] ;
613 -> 615 ;
616 [label="squared_error = 0.0\nsamples = 1\nvalue = 150000.0"] ;
615 -> 616 ;
617 [label="squared_error = 0.0\nsamples = 1\nvalue = 148000.0"] ;
615 -> 617 ;
618 [label="x[7] <= 0.5\nsquared_error = 8166666.667\nsamples = 3\nvalue = 161500.0"] ;
612 -> 618 ;
619 [label="squared_error = 0.0\nsamples = 1\nvalue = 158000.0"] ;
618 -> 619 ;
620 [label="x[84] <= -0.017\nsquared_error = 3062500.0\nsamples = 2\nvalue = 163250.0"] ;
618 -> 620 ;
621 [label="squared_error = 0.0\nsamples = 1\nvalue = 161500.0"] ;
620 -> 621 ;
622 [label="squared_error = 0.0\nsamples = 1\nvalue = 165000.0"] ;
620 -> 622 ;
623 [label="x[7] <= 0.5\nsquared_error = 14062500.0\nsamples = 2\nvalue = 167750.0"] ;
611 -> 623 ;
624 [label="squared_error = 0.0\nsamples = 1\nvalue = 164000.0"] ;
623 -> 624 ;
625 [label="squared_error = 0.0\nsamples = 1\nvalue = 171500.0"] ;
623 -> 625 ;
626 [label="squared_error = 0.0\nsamples = 1\nvalue = 174000.0"] ;
610 -> 626 ;
627 [label="squared_error = 0.0\nsamples = 1\nvalue = 187000.0"] ;
609 -> 627 ;
628 [label="squared_error = 0.0\nsamples = 1\nvalue = 128000.0"] ;
608 -> 628 ;
629 [label="x[44] <= 0.5\nsquared_error = 431698524.306\nsamples = 12\nvalue = 169929.167"] ;
545 -> 629 ;
630 [label="x[91] <= -0.36\nsquared_error = 223347968.75\nsamples = 4\nvalue = 185812.5"] ;
629 -> 630 ;
631 [label="squared_error = 0.0\nsamples = 1\nvalue = 200100.0"] ;
630 -> 631 ;
632 [label="x[84] <= 0.049\nsquared_error = 207071666.667\nsamples = 3\nvalue = 181050.0"] ;
630 -> 632 ;
633 [label="x[89] <= 0.274\nsquared_error = 41280625.0\nsamples = 2\nvalue = 171575.0"] ;
632 -> 633 ;
634 [label="squared_error = 0.0\nsamples = 1\nvalue = 178000.0"] ;
633 -> 634 ;
635 [label="squared_error = 0.0\nsamples = 1\nvalue = 165150.0"] ;
633 -> 635 ;
636 [label="squared_error = 0.0\nsamples = 1\nvalue = 200000.0"] ;
632 -> 636 ;
637 [label="x[87] <= 0.757\nsquared_error = 346663593.75\nsamples = 8\nvalue = 161987.5"] ;
629 -> 637 ;
638 [label="x[57] <= 0.5\nsquared_error = 7388888.889\nsamples = 3\nvalue = 151166.667"] ;
637 -> 638 ;
639 [label="x[60] <= 0.5\nsquared_error = 62500.0\nsamples = 2\nvalue = 149250.0"] ;
638 -> 639 ;
640 [label="squared_error = 0.0\nsamples = 1\nvalue = 149000.0"] ;
639 -> 640 ;
641 [label="squared_error = 0.0\nsamples = 1\nvalue = 149500.0"] ;
639 -> 641 ;
642 [label="squared_error = 0.0\nsamples = 1\nvalue = 155000.0"] ;
638 -> 642 ;
643 [label="x[58] <= 0.5\nsquared_error = 437821600.0\nsamples = 5\nvalue = 168480.0"] ;
637 -> 643 ;
644 [label="x[84] <= -0.282\nsquared_error = 130492500.0\nsamples = 4\nvalue = 159350.0"] ;
643 -> 644 ;
645 [label="squared_error = 0.0\nsamples = 1\nvalue = 169500.0"] ;
644 -> 645 ;
646 [label="x[94] <= -0.246\nsquared_error = 128202222.222\nsamples = 3\nvalue = 155966.667"] ;
644 -> 646 ;
647 [label="x[83] <= -0.061\nsquared_error = 1102500.0\nsamples = 2\nvalue = 163950.0"] ;
646 -> 647 ;
648 [label="squared_error = 0.0\nsamples = 1\nvalue = 162900.0"] ;
647 -> 648 ;
649 [label="squared_error = 0.0\nsamples = 1\nvalue = 165000.0"] ;
647 -> 649 ;
650 [label="squared_error = 0.0\nsamples = 1\nvalue = 140000.0"] ;
646 -> 650 ;
651 [label="squared_error = 0.0\nsamples = 1\nvalue = 205000.0"] ;
643 -> 651 ;
652 [label="x[47] <= 0.5\nsquared_error = 498236401.384\nsamples = 17\nvalue = 135764.706"] ;
518 -> 652 ;
653 [label="x[71] <= 0.5\nsquared_error = 394226734.694\nsamples = 14\nvalue = 141142.857"] ;
652 -> 653 ;
654 [label="x[44] <= 0.5\nsquared_error = 318041301.775\nsamples = 13\nvalue = 138384.615"] ;
653 -> 654 ;
655 [label="x[51] <= 0.5\nsquared_error = 151296000.0\nsamples = 10\nvalue = 146000.0"] ;
654 -> 655 ;
656 [label="squared_error = 0.0\nsamples = 1\nvalue = 169500.0"] ;
655 -> 656 ;
657 [label="x[89] <= -0.033\nsquared_error = 99927654.321\nsamples = 9\nvalue = 143388.889"] ;
655 -> 657 ;
658 [label="x[91] <= -0.36\nsquared_error = 70511875.0\nsamples = 4\nvalue = 137025.0"] ;
657 -> 658 ;
659 [label="x[84] <= -1.242\nsquared_error = 5342222.222\nsamples = 3\nvalue = 141733.333"] ;
658 -> 659 ;
660 [label="squared_error = 0.0\nsamples = 1\nvalue = 145000.0"] ;
659 -> 660 ;
661 [label="x[90] <= 1.398\nsquared_error = 10000.0\nsamples = 2\nvalue = 140100.0"] ;
659 -> 661 ;
662 [label="squared_error = 0.0\nsamples = 1\nvalue = 140200.0"] ;
661 -> 662 ;
663 [label="squared_error = 0.0\nsamples = 1\nvalue = 140000.0"] ;
661 -> 663 ;
664 [label="squared_error = 0.0\nsamples = 1\nvalue = 122900.0"] ;
658 -> 664 ;
665 [label="x[93] <= 0.083\nsquared_error = 65141600.0\nsamples = 5\nvalue = 148480.0"] ;
657 -> 665 ;
666 [label="x[26] <= 0.5\nsquared_error = 10562500.0\nsamples = 2\nvalue = 139750.0"] ;
665 -> 666 ;
667 [label="squared_error = 0.0\nsamples = 1\nvalue = 143000.0"] ;
666 -> 667 ;
668 [label="squared_error = 0.0\nsamples = 1\nvalue = 136500.0"] ;
666 -> 668 ;
669 [label="x[89] <= 0.581\nsquared_error = 16846666.667\nsamples = 3\nvalue = 154300.0"] ;
665 -> 669 ;
670 [label="x[93] <= 0.819\nsquared_error = 4202500.0\nsamples = 2\nvalue = 156950.0"] ;
669 -> 670 ;
671 [label="squared_error = 0.0\nsamples = 1\nvalue = 154900.0"] ;
670 -> 671 ;
672 [label="squared_error = 0.0\nsamples = 1\nvalue = 159000.0"] ;
670 -> 672 ;
673 [label="squared_error = 0.0\nsamples = 1\nvalue = 149000.0"] ;
669 -> 673 ;
674 [label="x[25] <= 0.5\nsquared_error = 36166666.667\nsamples = 3\nvalue = 113000.0"] ;
654 -> 674 ;
675 [label="x[82] <= -0.312\nsquared_error = 6250000.0\nsamples = 2\nvalue = 117000.0"] ;
674 -> 675 ;
676 [label="squared_error = 0.0\nsamples = 1\nvalue = 114500.0"] ;
675 -> 676 ;
677 [label="squared_error = 0.0\nsamples = 1\nvalue = 119500.0"] ;
675 -> 677 ;
678 [label="squared_error = 0.0\nsamples = 1\nvalue = 105000.0"] ;
674 -> 678 ;
679 [label="squared_error = 0.0\nsamples = 1\nvalue = 177000.0"] ;
653 -> 679 ;
680 [label="x[84] <= -0.812\nsquared_error = 218722222.222\nsamples = 3\nvalue = 110666.667"] ;
652 -> 680 ;
681 [label="x[89] <= -0.033\nsquared_error = 52562500.0\nsamples = 2\nvalue = 120250.0"] ;
680 -> 681 ;
682 [label="squared_error = 0.0\nsamples = 1\nvalue = 127500.0"] ;
681 -> 682 ;
683 [label="squared_error = 0.0\nsamples = 1\nvalue = 113000.0"] ;
681 -> 683 ;
684 [label="squared_error = 0.0\nsamples = 1\nvalue = 91500.0"] ;
680 -> 684 ;
685 [label="x[52] <= 0.5\nsquared_error = 1220245208.006\nsamples = 65\nvalue = 98103.2"] ;
3 -> 685 ;
686 [label="x[87] <= -0.487\nsquared_error = 1057976046.152\nsamples = 64\nvalue = 96432.938"] ;
685 -> 686 ;
687 [label="x[60] <= 0.5\nsquared_error = 717441690.587\nsamples = 31\nvalue = 78029.161"] ;
686 -> 687 ;
688 [label="x[80] <= 0.5\nsquared_error = 492666028.76\nsamples = 30\nvalue = 75196.8"] ;
687 -> 688 ;
689 [label="x[5] <= 0.5\nsquared_error = 2250000.0\nsamples = 2\nvalue = 36400.0"] ;
688 -> 689 ;
690 [label="squared_error = 0.0\nsamples = 1\nvalue = 34900.0"] ;
689 -> 690 ;
691 [label="squared_error = 0.0\nsamples = 1\nvalue = 37900.0"] ;
689 -> 691 ;
692 [label="x[73] <= 0.5\nsquared_error = 412502503.5\nsamples = 28\nvalue = 77968.0"] ;
688 -> 692 ;
693 [label="x[53] <= 0.5\nsquared_error = 329919651.894\nsamples = 25\nvalue = 74384.16"] ;
692 -> 693 ;
694 [label="x[82] <= -0.283\nsquared_error = 269971152.028\nsamples = 18\nvalue = 80322.833"] ;
693 -> 694 ;
695 [label="x[93] <= -1.755\nsquared_error = 157394097.222\nsamples = 12\nvalue = 85041.667"] ;
694 -> 695 ;
696 [label="squared_error = 0.0\nsamples = 1\nvalue = 55000.0"] ;
695 -> 696 ;
697 [label="x[49] <= 0.5\nsquared_error = 82198347.107\nsamples = 11\nvalue = 87772.727"] ;
695 -> 697 ;
698 [label="x[93] <= -0.284\nsquared_error = 66412500.0\nsamples = 10\nvalue = 89250.0"] ;
697 -> 698 ;
699 [label="x[89] <= -1.261\nsquared_error = 15440000.0\nsamples = 5\nvalue = 95600.0"] ;
698 -> 699 ;
700 [label="x[83] <= -0.958\nsquared_error = 1000000.0\nsamples = 2\nvalue = 92000.0"] ;
699 -> 700 ;
701 [label="squared_error = 0.0\nsamples = 1\nvalue = 93000.0"] ;
700 -> 701 ;
702 [label="squared_error = 0.0\nsamples = 1\nvalue = 91000.0"] ;
700 -> 702 ;
703 [label="x[89] <= -0.647\nsquared_error = 10666666.667\nsamples = 3\nvalue = 98000.0"] ;
699 -> 703 ;
704 [label="x[62] <= 0.5\nsquared_error = 4000000.0\nsamples = 2\nvalue = 100000.0"] ;
703 -> 704 ;
705 [label="squared_error = 0.0\nsamples = 1\nvalue = 102000.0"] ;
704 -> 705 ;
706 [label="squared_error = 0.0\nsamples = 1\nvalue = 98000.0"] ;
704 -> 706 ;
707 [label="squared_error = 0.0\nsamples = 1\nvalue = 94000.0"] ;
703 -> 707 ;
708 [label="x[34] <= 0.5\nsquared_error = 36740000.0\nsamples = 5\nvalue = 82900.0"] ;
698 -> 708 ;
709 [label="x[48] <= 0.5\nsquared_error = 12125000.0\nsamples = 4\nvalue = 85500.0"] ;
708 -> 709 ;
710 [label="x[20] <= 0.5\nsquared_error = 4000000.0\nsamples = 2\nvalue = 82500.0"] ;
709 -> 710 ;
711 [label="squared_error = 0.0\nsamples = 1\nvalue = 80500.0"] ;
710 -> 711 ;
712 [label="squared_error = 0.0\nsamples = 1\nvalue = 84500.0"] ;
710 -> 712 ;
713 [label="x[89] <= -0.647\nsquared_error = 2250000.0\nsamples = 2\nvalue = 88500.0"] ;
709 -> 713 ;
714 [label="squared_error = 0.0\nsamples = 1\nvalue = 87000.0"] ;
713 -> 714 ;
715 [label="squared_error = 0.0\nsamples = 1\nvalue = 90000.0"] ;
713 -> 715 ;
716 [label="squared_error = 0.0\nsamples = 1\nvalue = 72500.0"] ;
708 -> 716 ;
717 [label="squared_error = 0.0\nsamples = 1\nvalue = 73000.0"] ;
697 -> 717 ;
718 [label="x[89] <= -1.261\nsquared_error = 361520933.472\nsamples = 6\nvalue = 70885.167"] ;
694 -> 718 ;
719 [label="squared_error = 0.0\nsamples = 1\nvalue = 35311.0"] ;
718 -> 719 ;
720 [label="x[82] <= -0.216\nsquared_error = 130100000.0\nsamples = 5\nvalue = 78000.0"] ;
718 -> 720 ;
721 [label="squared_error = 0.0\nsamples = 1\nvalue = 58500.0"] ;
720 -> 721 ;
722 [label="x[94] <= -0.619\nsquared_error = 43796875.0\nsamples = 4\nvalue = 82875.0"] ;
720 -> 722 ;
723 [label="squared_error = 0.0\nsamples = 1\nvalue = 93500.0"] ;
722 -> 723 ;
724 [label="x[94] <= 1.248\nsquared_error = 8222222.222\nsamples = 3\nvalue = 79333.333"] ;
722 -> 724 ;
725 [label="x[37] <= 0.5\nsquared_error = 2250000.0\nsamples = 2\nvalue = 77500.0"] ;
724 -> 725 ;
726 [label="squared_error = 0.0\nsamples = 1\nvalue = 76000.0"] ;
725 -> 726 ;
727 [label="squared_error = 0.0\nsamples = 1\nvalue = 79000.0"] ;
725 -> 727 ;
728 [label="squared_error = 0.0\nsamples = 1\nvalue = 83000.0"] ;
724 -> 728 ;
729 [label="x[82] <= -0.497\nsquared_error = 160184601.918\nsamples = 7\nvalue = 59113.286"] ;
693 -> 729 ;
730 [label="x[84] <= -0.911\nsquared_error = 43560000.0\nsamples = 2\nvalue = 45900.0"] ;
729 -> 730 ;
731 [label="squared_error = 0.0\nsamples = 1\nvalue = 52500.0"] ;
730 -> 731 ;
732 [label="squared_error = 0.0\nsamples = 1\nvalue = 39300.0"] ;
730 -> 732 ;
733 [label="x[84] <= -1.772\nsquared_error = 109063527.84\nsamples = 5\nvalue = 64398.6"] ;
729 -> 733 ;
734 [label="squared_error = 0.0\nsamples = 1\nvalue = 85000.0"] ;
733 -> 734 ;
735 [label="x[93] <= -0.652\nsquared_error = 3698884.188\nsamples = 4\nvalue = 59248.25"] ;
733 -> 735 ;
736 [label="x[93] <= -1.571\nsquared_error = 222222.222\nsamples = 3\nvalue = 60333.333"] ;
735 -> 736 ;
737 [label="squared_error = 0.0\nsamples = 2\nvalue = 60000.0"] ;
736 -> 737 ;
738 [label="squared_error = 0.0\nsamples = 1\nvalue = 61000.0"] ;
736 -> 738 ;
739 [label="squared_error = 0.0\nsamples = 1\nvalue = 55993.0"] ;
735 -> 739 ;
740 [label="x[83] <= -0.061\nsquared_error = 101722222.222\nsamples = 3\nvalue = 107833.333"] ;
692 -> 740 ;
741 [label="x[88] <= 4.309\nsquared_error = 22562500.0\nsamples = 2\nvalue = 101250.0"] ;
740 -> 741 ;
742 [label="squared_error = 0.0\nsamples = 1\nvalue = 96500.0"] ;
741 -> 742 ;
743 [label="squared_error = 0.0\nsamples = 1\nvalue = 106000.0"] ;
741 -> 743 ;
744 [label="squared_error = 0.0\nsamples = 1\nvalue = 121000.0"] ;
740 -> 744 ;
745 [label="squared_error = 0.0\nsamples = 1\nvalue = 163000.0"] ;
687 -> 745 ;
746 [label="x[89] <= -0.033\nsquared_error = 760811557.495\nsamples = 33\nvalue = 113721.333"] ;
686 -> 746 ;
747 [label="x[82] <= -0.026\nsquared_error = 728208400.0\nsamples = 10\nvalue = 96260.0"] ;
746 -> 747 ;
748 [label="x[53] <= 0.5\nsquared_error = 548264375.0\nsamples = 8\nvalue = 87825.0"] ;
747 -> 748 ;
749 [label="x[20] <= 0.5\nsquared_error = 363072653.061\nsamples = 7\nvalue = 82085.714"] ;
748 -> 749 ;
750 [label="x[84] <= -1.656\nsquared_error = 79183333.333\nsamples = 6\nvalue = 89100.0"] ;
749 -> 750 ;
751 [label="x[94] <= -0.246\nsquared_error = 250000.0\nsamples = 2\nvalue = 78500.0"] ;
750 -> 751 ;
752 [label="squared_error = 0.0\nsamples = 1\nvalue = 79000.0"] ;
751 -> 752 ;
753 [label="squared_error = 0.0\nsamples = 1\nvalue = 78000.0"] ;
751 -> 753 ;
754 [label="x[94] <= 0.501\nsquared_error = 34380000.0\nsamples = 4\nvalue = 94400.0"] ;
750 -> 754 ;
755 [label="x[89] <= -0.647\nsquared_error = 8222222.222\nsamples = 3\nvalue = 91333.333"] ;
754 -> 755 ;
756 [label="squared_error = 0.0\nsamples = 1\nvalue = 95000.0"] ;
755 -> 756 ;
757 [label="x[14] <= 0.5\nsquared_error = 2250000.0\nsamples = 2\nvalue = 89500.0"] ;
755 -> 757 ;
758 [label="squared_error = 0.0\nsamples = 1\nvalue = 91000.0"] ;
757 -> 758 ;
759 [label="squared_error = 0.0\nsamples = 1\nvalue = 88000.0"] ;
757 -> 759 ;
760 [label="squared_error = 0.0\nsamples = 1\nvalue = 103600.0"] ;
754 -> 760 ;
761 [label="squared_error = 0.0\nsamples = 1\nvalue = 40000.0"] ;
749 -> 761 ;
762 [label="squared_error = 0.0\nsamples = 1\nvalue = 128000.0"] ;
748 -> 762 ;
763 [label="x[93] <= 1.37\nsquared_error = 25000000.0\nsamples = 2\nvalue = 130000.0"] ;
747 -> 763 ;
764 [label="squared_error = 0.0\nsamples = 1\nvalue = 125000.0"] ;
763 -> 764 ;
765 [label="squared_error = 0.0\nsamples = 1\nvalue = 135000.0"] ;
763 -> 765 ;
766 [label="x[94] <= 0.501\nsquared_error = 584785721.648\nsamples = 23\nvalue = 121313.217"] ;
746 -> 766 ;
767 [label="x[0] <= 0.5\nsquared_error = 384879881.855\nsamples = 17\nvalue = 128576.706"] ;
766 -> 767 ;
768 [label="x[82] <= -0.009\nsquared_error = 145473333.333\nsamples = 9\nvalue = 142533.333"] ;
767 -> 768 ;
769 [label="x[16] <= 0.5\nsquared_error = 54246938.776\nsamples = 7\nvalue = 137114.286"] ;
768 -> 769 ;
770 [label="x[93] <= -0.284\nsquared_error = 14753600.0\nsamples = 5\nvalue = 140780.0"] ;
769 -> 770 ;
771 [label="x[40] <= 0.5\nsquared_error = 302500.0\nsamples = 2\nvalue = 136450.0"] ;
770 -> 771 ;
772 [label="squared_error = 0.0\nsamples = 1\nvalue = 137000.0"] ;
771 -> 772 ;
773 [label="squared_error = 0.0\nsamples = 1\nvalue = 135900.0"] ;
771 -> 773 ;
774 [label="x[83] <= -0.51\nsquared_error = 3555555.556\nsamples = 3\nvalue = 143666.667"] ;
770 -> 774 ;
775 [label="squared_error = 0.0\nsamples = 1\nvalue = 141000.0"] ;
774 -> 775 ;
776 [label="squared_error = 0.0\nsamples = 2\nvalue = 145000.0"] ;
774 -> 776 ;
777 [label="x[48] <= 0.5\nsquared_error = 35402500.0\nsamples = 2\nvalue = 127950.0"] ;
769 -> 777 ;
778 [label="squared_error = 0.0\nsamples = 1\nvalue = 133900.0"] ;
777 -> 778 ;
779 [label="squared_error = 0.0\nsamples = 1\nvalue = 122000.0"] ;
777 -> 779 ;
780 [label="x[66] <= 0.5\nsquared_error = 2250000.0\nsamples = 2\nvalue = 161500.0"] ;
768 -> 780 ;
781 [label="squared_error = 0.0\nsamples = 1\nvalue = 160000.0"] ;
780 -> 781 ;
782 [label="squared_error = 0.0\nsamples = 1\nvalue = 163000.0"] ;
780 -> 782 ;
783 [label="x[82] <= -0.148\nsquared_error = 188548501.75\nsamples = 8\nvalue = 112875.5"] ;
767 -> 783 ;
784 [label="x[86] <= 0.232\nsquared_error = 106050668.889\nsamples = 6\nvalue = 118167.333"] ;
783 -> 784 ;
785 [label="x[89] <= 0.581\nsquared_error = 84565003.0\nsamples = 4\nvalue = 113251.0"] ;
784 -> 785 ;
786 [label="x[91] <= 0.321\nsquared_error = 68095504.0\nsamples = 2\nvalue = 106252.0"] ;
785 -> 786 ;
787 [label="squared_error = 0.0\nsamples = 1\nvalue = 114504.0"] ;
786 -> 787 ;
788 [label="squared_error = 0.0\nsamples = 1\nvalue = 98000.0"] ;
786 -> 788 ;
789 [label="x[93] <= 0.451\nsquared_error = 3062500.0\nsamples = 2\nvalue = 120250.0"] ;
785 -> 789 ;
790 [label="squared_error = 0.0\nsamples = 1\nvalue = 118500.0"] ;
789 -> 790 ;
791 [label="squared_error = 0.0\nsamples = 1\nvalue = 122000.0"] ;
789 -> 791 ;
792 [label="x[84] <= -1.507\nsquared_error = 4000000.0\nsamples = 2\nvalue = 128000.0"] ;
784 -> 792 ;
793 [label="squared_error = 0.0\nsamples = 1\nvalue = 130000.0"] ;
792 -> 793 ;
794 [label="squared_error = 0.0\nsamples = 1\nvalue = 126000.0"] ;
792 -> 794 ;
795 [label="x[88] <= 2.051\nsquared_error = 100000000.0\nsamples = 2\nvalue = 97000.0"] ;
783 -> 795 ;
796 [label="squared_error = 0.0\nsamples = 1\nvalue = 107000.0"] ;
795 -> 796 ;
797 [label="squared_error = 0.0\nsamples = 1\nvalue = 87000.0"] ;
795 -> 797 ;
798 [label="x[89] <= 0.581\nsquared_error = 578172222.222\nsamples = 6\nvalue = 100733.333"] ;
766 -> 798 ;
799 [label="squared_error = 0.0\nsamples = 1\nvalue = 55000.0"] ;
798 -> 799 ;
800 [label="x[16] <= 0.5\nsquared_error = 191837600.0\nsamples = 5\nvalue = 109880.0"] ;
798 -> 800 ;
801 [label="x[93] <= -0.652\nsquared_error = 19846666.667\nsamples = 3\nvalue = 104300.0"] ;
800 -> 801 ;
802 [label="squared_error = 0.0\nsamples = 1\nvalue = 98000.0"] ;
801 -> 802 ;
803 [label="x[68] <= 0.5\nsquared_error = 2500.0\nsamples = 2\nvalue = 107450.0"] ;
801 -> 803 ;
804 [label="squared_error = 0.0\nsamples = 1\nvalue = 107400.0"] ;
803 -> 804 ;
805 [label="squared_error = 0.0\nsamples = 1\nvalue = 107500.0"] ;
803 -> 805 ;
806 [label="x[93] <= -0.652\nsquared_error = 333062500.0\nsamples = 2\nvalue = 118250.0"] ;
800 -> 806 ;
807 [label="squared_error = 0.0\nsamples = 1\nvalue = 136500.0"] ;
806 -> 807 ;
808 [label="squared_error = 0.0\nsamples = 1\nvalue = 100000.0"] ;
806 -> 808 ;
809 [label="squared_error = 0.0\nsamples = 1\nvalue = 205000.0"] ;
685 -> 809 ;
810 [label="x[31] <= 0.5\nsquared_error = 1948806373.788\nsamples = 78\nvalue = 156261.859"] ;
2 -> 810 ;
811 [label="x[58] <= 0.5\nsquared_error = 1254952743.479\nsamples = 73\nvalue = 151008.562"] ;
810 -> 811 ;
812 [label="x[15] <= 0.5\nsquared_error = 899786703.601\nsamples = 19\nvalue = 179947.368"] ;
811 -> 812 ;
813 [label="x[91] <= -0.36\nsquared_error = 578652006.173\nsamples = 18\nvalue = 175527.778"] ;
812 -> 813 ;
814 [label="x[89] <= -0.647\nsquared_error = 201312500.0\nsamples = 4\nvalue = 153750.0"] ;
813 -> 814 ;
815 [label="squared_error = 0.0\nsamples = 1\nvalue = 130500.0"] ;
814 -> 815 ;
816 [label="x[7] <= 0.5\nsquared_error = 28166666.667\nsamples = 3\nvalue = 161500.0"] ;
814 -> 816 ;
817 [label="x[64] <= 0.5\nsquared_error = 62500.0\nsamples = 2\nvalue = 165250.0"] ;
816 -> 817 ;
818 [label="squared_error = 0.0\nsamples = 1\nvalue = 165000.0"] ;
817 -> 818 ;
819 [label="squared_error = 0.0\nsamples = 1\nvalue = 165500.0"] ;
817 -> 819 ;
820 [label="squared_error = 0.0\nsamples = 1\nvalue = 154000.0"] ;
816 -> 820 ;
821 [label="x[62] <= 0.5\nsquared_error = 512241071.429\nsamples = 14\nvalue = 181750.0"] ;
813 -> 821 ;
822 [label="x[83] <= -0.061\nsquared_error = 126562500.0\nsamples = 2\nvalue = 146250.0"] ;
821 -> 822 ;
823 [label="squared_error = 0.0\nsamples = 1\nvalue = 135000.0"] ;
822 -> 823 ;
824 [label="squared_error = 0.0\nsamples = 1\nvalue = 157500.0"] ;
822 -> 824 ;
825 [label="x[84] <= 0.132\nsquared_error = 331472222.222\nsamples = 12\nvalue = 187666.667"] ;
821 -> 825 ;
826 [label="x[93] <= 1.003\nsquared_error = 172368055.556\nsamples = 6\nvalue = 177083.333"] ;
825 -> 826 ;
827 [label="x[14] <= 0.5\nsquared_error = 110040000.0\nsamples = 5\nvalue = 181100.0"] ;
826 -> 827 ;
828 [label="x[44] <= 0.5\nsquared_error = 46500000.0\nsamples = 3\nvalue = 188500.0"] ;
827 -> 828 ;
829 [label="x[82] <= -0.06\nsquared_error = 9000000.0\nsamples = 2\nvalue = 184000.0"] ;
828 -> 829 ;
830 [label="squared_error = 0.0\nsamples = 1\nvalue = 187000.0"] ;
829 -> 830 ;
831 [label="squared_error = 0.0\nsamples = 1\nvalue = 181000.0"] ;
829 -> 831 ;
832 [label="squared_error = 0.0\nsamples = 1\nvalue = 197500.0"] ;
828 -> 832 ;
833 [label="squared_error = 0.0\nsamples = 2\nvalue = 170000.0"] ;
827 -> 833 ;
834 [label="squared_error = 0.0\nsamples = 1\nvalue = 157000.0"] ;
826 -> 834 ;
835 [label="x[85] <= -0.126\nsquared_error = 266562500.0\nsamples = 6\nvalue = 198250.0"] ;
825 -> 835 ;
836 [label="squared_error = 0.0\nsamples = 1\nvalue = 165500.0"] ;
835 -> 836 ;
837 [label="x[86] <= 0.232\nsquared_error = 62460000.0\nsamples = 5\nvalue = 204800.0"] ;
835 -> 837 ;
838 [label="x[23] <= 0.5\nsquared_error = 61421875.0\nsamples = 4\nvalue = 206625.0"] ;
837 -> 838 ;
839 [label="squared_error = 0.0\nsamples = 1\nvalue = 218000.0"] ;
838 -> 839 ;
840 [label="x[44] <= 0.5\nsquared_error = 24388888.889\nsamples = 3\nvalue = 202833.333"] ;
838 -> 840 ;
841 [label="x[7] <= 0.5\nsquared_error = 1562500.0\nsamples = 2\nvalue = 206250.0"] ;
840 -> 841 ;
842 [label="squared_error = 0.0\nsamples = 1\nvalue = 207500.0"] ;
841 -> 842 ;
843 [label="squared_error = 0.0\nsamples = 1\nvalue = 205000.0"] ;
841 -> 843 ;
844 [label="squared_error = 0.0\nsamples = 1\nvalue = 196000.0"] ;
840 -> 844 ;
845 [label="squared_error = 0.0\nsamples = 1\nvalue = 197500.0"] ;
837 -> 845 ;
846 [label="squared_error = 0.0\nsamples = 1\nvalue = 259500.0"] ;
812 -> 846 ;
847 [label="x[86] <= 0.232\nsquared_error = 981582000.386\nsamples = 54\nvalue = 140826.389"] ;
811 -> 847 ;
848 [label="x[82] <= -0.146\nsquared_error = 516145746.579\nsamples = 41\nvalue = 131700.61"] ;
847 -> 848 ;
849 [label="x[42] <= 0.5\nsquared_error = 358507330.995\nsamples = 28\nvalue = 123141.071"] ;
848 -> 849 ;
850 [label="x[87] <= -1.73\nsquared_error = 317134444.444\nsamples = 18\nvalue = 117733.333"] ;
849 -> 850 ;
851 [label="squared_error = 0.0\nsamples = 1\nvalue = 86000.0"] ;
850 -> 851 ;
852 [label="x[48] <= 0.5\nsquared_error = 273069411.765\nsamples = 17\nvalue = 119600.0"] ;
850 -> 852 ;
853 [label="x[93] <= 1.922\nsquared_error = 272078488.889\nsamples = 15\nvalue = 117586.667"] ;
852 -> 853 ;
854 [label="x[88] <= 2.051\nsquared_error = 225302653.061\nsamples = 14\nvalue = 115485.714"] ;
853 -> 854 ;
855 [label="x[5] <= 0.5\nsquared_error = 200748994.083\nsamples = 13\nvalue = 117215.385"] ;
854 -> 855 ;
856 [label="x[82] <= -0.555\nsquared_error = 200491735.537\nsamples = 11\nvalue = 114890.909"] ;
855 -> 856 ;
857 [label="squared_error = 0.0\nsamples = 1\nvalue = 79000.0"] ;
856 -> 857 ;
858 [label="x[24] <= 0.5\nsquared_error = 78843600.0\nsamples = 10\nvalue = 118480.0"] ;
856 -> 858 ;
859 [label="x[21] <= 0.5\nsquared_error = 74722343.75\nsamples = 8\nvalue = 120662.5"] ;
858 -> 859 ;
860 [label="x[84] <= -0.712\nsquared_error = 71568055.556\nsamples = 6\nvalue = 122883.333"] ;
859 -> 860 ;
861 [label="squared_error = 0.0\nsamples = 1\nvalue = 108000.0"] ;
860 -> 861 ;
862 [label="x[94] <= 1.248\nsquared_error = 32718400.0\nsamples = 5\nvalue = 125860.0"] ;
860 -> 862 ;
863 [label="x[14] <= 0.5\nsquared_error = 15921875.0\nsamples = 4\nvalue = 123625.0"] ;
862 -> 863 ;
864 [label="squared_error = 0.0\nsamples = 1\nvalue = 130000.0"] ;
863 -> 864 ;
865 [label="x[90] <= -0.166\nsquared_error = 3166666.667\nsamples = 3\nvalue = 121500.0"] ;
863 -> 865 ;
866 [label="x[94] <= -0.246\nsquared_error = 62500.0\nsamples = 2\nvalue = 120250.0"] ;
865 -> 866 ;
867 [label="squared_error = 0.0\nsamples = 1\nvalue = 120000.0"] ;
866 -> 867 ;
868 [label="squared_error = 0.0\nsamples = 1\nvalue = 120500.0"] ;
866 -> 868 ;
869 [label="squared_error = 0.0\nsamples = 1\nvalue = 124000.0"] ;
865 -> 869 ;
870 [label="squared_error = 0.0\nsamples = 1\nvalue = 134800.0"] ;
862 -> 870 ;
871 [label="x[66] <= 0.5\nsquared_error = 25000000.0\nsamples = 2\nvalue = 114000.0"] ;
859 -> 871 ;
872 [label="squared_error = 0.0\nsamples = 1\nvalue = 119000.0"] ;
871 -> 872 ;
873 [label="squared_error = 0.0\nsamples = 1\nvalue = 109000.0"] ;
871 -> 873 ;
874 [label="x[47] <= 0.5\nsquared_error = 62500.0\nsamples = 2\nvalue = 109750.0"] ;
858 -> 874 ;
875 [label="squared_error = 0.0\nsamples = 1\nvalue = 109500.0"] ;
874 -> 875 ;
876 [label="squared_error = 0.0\nsamples = 1\nvalue = 110000.0"] ;
874 -> 876 ;
877 [label="x[82] <= -0.497\nsquared_error = 9000000.0\nsamples = 2\nvalue = 130000.0"] ;
855 -> 877 ;
878 [label="squared_error = 0.0\nsamples = 1\nvalue = 127000.0"] ;
877 -> 878 ;
879 [label="squared_error = 0.0\nsamples = 1\nvalue = 133000.0"] ;
877 -> 879 ;
880 [label="squared_error = 0.0\nsamples = 1\nvalue = 93000.0"] ;
854 -> 880 ;
881 [label="squared_error = 0.0\nsamples = 1\nvalue = 147000.0"] ;
853 -> 881 ;
882 [label="x[84] <= -0.894\nsquared_error = 22090000.0\nsamples = 2\nvalue = 134700.0"] ;
852 -> 882 ;
883 [label="squared_error = 0.0\nsamples = 1\nvalue = 139400.0"] ;
882 -> 883 ;
884 [label="squared_error = 0.0\nsamples = 1\nvalue = 130000.0"] ;
882 -> 884 ;
885 [label="x[6] <= 0.5\nsquared_error = 285590625.0\nsamples = 10\nvalue = 132875.0"] ;
849 -> 885 ;
886 [label="x[94] <= -0.993\nsquared_error = 224805555.556\nsamples = 9\nvalue = 135916.667"] ;
885 -> 886 ;
887 [label="squared_error = 0.0\nsamples = 1\nvalue = 110500.0"] ;
886 -> 887 ;
888 [label="x[79] <= 0.5\nsquared_error = 162061523.438\nsamples = 8\nvalue = 139093.75"] ;
886 -> 888 ;
889 [label="x[47] <= 0.5\nsquared_error = 98140306.122\nsamples = 7\nvalue = 142392.857"] ;
888 -> 889 ;
890 [label="x[87] <= -0.487\nsquared_error = 96550347.222\nsamples = 6\nvalue = 140791.667"] ;
889 -> 890 ;
891 [label="squared_error = 0.0\nsamples = 1\nvalue = 134500.0"] ;
890 -> 891 ;
892 [label="x[69] <= 0.5\nsquared_error = 106360000.0\nsamples = 5\nvalue = 142050.0"] ;
890 -> 892 ;
893 [label="x[84] <= -0.381\nsquared_error = 182250000.0\nsamples = 2\nvalue = 142500.0"] ;
892 -> 893 ;
894 [label="squared_error = 0.0\nsamples = 1\nvalue = 129000.0"] ;
893 -> 894 ;
895 [label="squared_error = 0.0\nsamples = 1\nvalue = 156000.0"] ;
893 -> 895 ;
896 [label="x[91] <= -0.36\nsquared_error = 55541666.667\nsamples = 3\nvalue = 141750.0"] ;
892 -> 896 ;
897 [label="x[89] <= -0.647\nsquared_error = 22562500.0\nsamples = 2\nvalue = 137250.0"] ;
896 -> 897 ;
898 [label="squared_error = 0.0\nsamples = 1\nvalue = 142000.0"] ;
897 -> 898 ;
899 [label="squared_error = 0.0\nsamples = 1\nvalue = 132500.0"] ;
897 -> 899 ;
900 [label="squared_error = 0.0\nsamples = 1\nvalue = 150750.0"] ;
896 -> 900 ;
901 [label="squared_error = 0.0\nsamples = 1\nvalue = 152000.0"] ;
889 -> 901 ;
902 [label="squared_error = 0.0\nsamples = 1\nvalue = 116000.0"] ;
888 -> 902 ;
903 [label="squared_error = 0.0\nsamples = 1\nvalue = 105500.0"] ;
885 -> 903 ;
904 [label="x[26] <= 0.5\nsquared_error = 357988136.095\nsamples = 13\nvalue = 150136.538"] ;
848 -> 904 ;
905 [label="x[69] <= 0.5\nsquared_error = 290653667.355\nsamples = 11\nvalue = 145715.909"] ;
904 -> 905 ;
906 [label="x[90] <= -0.166\nsquared_error = 434949218.75\nsamples = 4\nvalue = 155437.5"] ;
905 -> 906 ;
907 [label="x[42] <= 0.5\nsquared_error = 49000000.0\nsamples = 2\nvalue = 137000.0"] ;
906 -> 907 ;
908 [label="squared_error = 0.0\nsamples = 1\nvalue = 130000.0"] ;
907 -> 908 ;
909 [label="squared_error = 0.0\nsamples = 1\nvalue = 144000.0"] ;
907 -> 909 ;
910 [label="x[94] <= 1.248\nsquared_error = 141015625.0\nsamples = 2\nvalue = 173875.0"] ;
906 -> 910 ;
911 [label="squared_error = 0.0\nsamples = 1\nvalue = 185750.0"] ;
910 -> 911 ;
912 [label="squared_error = 0.0\nsamples = 1\nvalue = 162000.0"] ;
910 -> 912 ;
913 [label="x[83] <= 2.182\nsquared_error = 123333545.918\nsamples = 7\nvalue = 140160.714"] ;
905 -> 913 ;
914 [label="x[44] <= 0.5\nsquared_error = 59446614.583\nsamples = 6\nvalue = 136687.5"] ;
913 -> 914 ;
915 [label="x[16] <= 0.5\nsquared_error = 5420138.889\nsamples = 3\nvalue = 143708.333"] ;
914 -> 915 ;
916 [label="squared_error = 0.0\nsamples = 1\nvalue = 147000.0"] ;
915 -> 916 ;
917 [label="x[47] <= 0.5\nsquared_error = 3906.25\nsamples = 2\nvalue = 142062.5"] ;
915 -> 917 ;
918 [label="squared_error = 0.0\nsamples = 1\nvalue = 142000.0"] ;
917 -> 918 ;
919 [label="squared_error = 0.0\nsamples = 1\nvalue = 142125.0"] ;
917 -> 919 ;
920 [label="x[84] <= -0.712\nsquared_error = 14888888.889\nsamples = 3\nvalue = 129666.667"] ;
914 -> 920 ;
921 [label="squared_error = 0.0\nsamples = 1\nvalue = 135000.0"] ;
920 -> 921 ;
922 [label="x[2] <= 0.5\nsquared_error = 1000000.0\nsamples = 2\nvalue = 127000.0"] ;
920 -> 922 ;
923 [label="squared_error = 0.0\nsamples = 1\nvalue = 128000.0"] ;
922 -> 923 ;
924 [label="squared_error = 0.0\nsamples = 1\nvalue = 126000.0"] ;
922 -> 924 ;
925 [label="squared_error = 0.0\nsamples = 1\nvalue = 161000.0"] ;
913 -> 925 ;
926 [label="x[66] <= 0.5\nsquared_error = 29702500.0\nsamples = 2\nvalue = 174450.0"] ;
904 -> 926 ;
927 [label="squared_error = 0.0\nsamples = 1\nvalue = 179900.0"] ;
926 -> 927 ;
928 [label="squared_error = 0.0\nsamples = 1\nvalue = 169000.0"] ;
926 -> 928 ;
929 [label="x[89] <= 1.195\nsquared_error = 1358481094.675\nsamples = 13\nvalue = 169607.692"] ;
847 -> 929 ;
930 [label="x[89] <= -0.647\nsquared_error = 411023958.333\nsamples = 12\nvalue = 160575.0"] ;
929 -> 930 ;
931 [label="squared_error = 0.0\nsamples = 1\nvalue = 118000.0"] ;
930 -> 931 ;
932 [label="x[87] <= 0.757\nsquared_error = 268624752.066\nsamples = 11\nvalue = 164445.455"] ;
930 -> 932 ;
933 [label="x[40] <= 0.5\nsquared_error = 284605612.245\nsamples = 7\nvalue = 158128.571"] ;
932 -> 933 ;
934 [label="x[82] <= -0.173\nsquared_error = 270119218.75\nsamples = 4\nvalue = 167237.5"] ;
933 -> 934 ;
935 [label="x[24] <= 0.5\nsquared_error = 63600625.0\nsamples = 2\nvalue = 181975.0"] ;
934 -> 935 ;
936 [label="squared_error = 0.0\nsamples = 1\nvalue = 174000.0"] ;
935 -> 936 ;
937 [label="squared_error = 0.0\nsamples = 1\nvalue = 189950.0"] ;
935 -> 937 ;
938 [label="x[80] <= 0.5\nsquared_error = 42250000.0\nsamples = 2\nvalue = 152500.0"] ;
934 -> 938 ;
939 [label="squared_error = 0.0\nsamples = 1\nvalue = 159000.0"] ;
938 -> 939 ;
940 [label="squared_error = 0.0\nsamples = 1\nvalue = 146000.0"] ;
938 -> 940 ;
941 [label="x[62] <= 0.5\nsquared_error = 45783888.889\nsamples = 3\nvalue = 145983.333"] ;
933 -> 941 ;
942 [label="squared_error = 0.0\nsamples = 1\nvalue = 137450.0"] ;
941 -> 942 ;
943 [label="x[68] <= 0.5\nsquared_error = 14062500.0\nsamples = 2\nvalue = 150250.0"] ;
941 -> 943 ;
944 [label="squared_error = 0.0\nsamples = 1\nvalue = 146500.0"] ;
943 -> 944 ;
945 [label="squared_error = 0.0\nsamples = 1\nvalue = 154000.0"] ;
943 -> 945 ;
946 [label="x[82] <= -0.178\nsquared_error = 48625000.0\nsamples = 4\nvalue = 175500.0"] ;
932 -> 946 ;
947 [label="x[25] <= 0.5\nsquared_error = 5062500.0\nsamples = 2\nvalue = 181750.0"] ;
946 -> 947 ;
948 [label="squared_error = 0.0\nsamples = 1\nvalue = 179500.0"] ;
947 -> 948 ;
949 [label="squared_error = 0.0\nsamples = 1\nvalue = 184000.0"] ;
947 -> 949 ;
950 [label="x[83] <= 0.836\nsquared_error = 14062500.0\nsamples = 2\nvalue = 169250.0"] ;
946 -> 950 ;
951 [label="squared_error = 0.0\nsamples = 1\nvalue = 165500.0"] ;
950 -> 951 ;
952 [label="squared_error = 0.0\nsamples = 1\nvalue = 173000.0"] ;
950 -> 952 ;
953 [label="squared_error = 0.0\nsamples = 1\nvalue = 278000.0"] ;
929 -> 953 ;
954 [label="x[85] <= -0.126\nsquared_error = 5793546400.0\nsamples = 5\nvalue = 232960.0"] ;
810 -> 954 ;
955 [label="x[93] <= -0.1\nsquared_error = 3062500.0\nsamples = 2\nvalue = 141750.0"] ;
954 -> 955 ;
956 [label="squared_error = 0.0\nsamples = 1\nvalue = 140000.0"] ;
955 -> 956 ;
957 [label="squared_error = 0.0\nsamples = 1\nvalue = 143500.0"] ;
955 -> 957 ;
958 [label="x[80] <= 0.5\nsquared_error = 410242222.222\nsamples = 3\nvalue = 293766.667"] ;
954 -> 958 ;
959 [label="squared_error = 0.0\nsamples = 1\nvalue = 266500.0"] ;
958 -> 959 ;
960 [label="x[66] <= 0.5\nsquared_error = 57760000.0\nsamples = 2\nvalue = 307400.0"] ;
958 -> 960 ;
961 [label="squared_error = 0.0\nsamples = 1\nvalue = 299800.0"] ;
960 -> 961 ;
962 [label="squared_error = 0.0\nsamples = 1\nvalue = 315000.0"] ;
960 -> 962 ;
963 [label="x[90] <= -0.166\nsquared_error = 3608365068.674\nsamples = 177\nvalue = 183500.667"] ;
1 -> 963 ;
964 [label="x[83] <= -0.958\nsquared_error = 799881295.125\nsamples = 52\nvalue = 142883.404"] ;
963 -> 964 ;
965 [label="x[84] <= -0.331\nsquared_error = 657979166.667\nsamples = 6\nvalue = 106250.0"] ;
964 -> 965 ;
966 [label="x[2] <= 0.5\nsquared_error = 249687500.0\nsamples = 4\nvalue = 90750.0"] ;
965 -> 966 ;
967 [label="x[21] <= 0.5\nsquared_error = 2888888.889\nsamples = 3\nvalue = 81666.667"] ;
966 -> 967 ;
968 [label="x[94] <= 0.874\nsquared_error = 250000.0\nsamples = 2\nvalue = 80500.0"] ;
967 -> 968 ;
969 [label="squared_error = 0.0\nsamples = 1\nvalue = 81000.0"] ;
968 -> 969 ;
970 [label="squared_error = 0.0\nsamples = 1\nvalue = 80000.0"] ;
968 -> 970 ;
971 [label="squared_error = 0.0\nsamples = 1\nvalue = 84000.0"] ;
967 -> 971 ;
972 [label="squared_error = 0.0\nsamples = 1\nvalue = 118000.0"] ;
966 -> 972 ;
973 [label="x[1] <= 0.5\nsquared_error = 33062500.0\nsamples = 2\nvalue = 137250.0"] ;
965 -> 973 ;
974 [label="squared_error = 0.0\nsamples = 1\nvalue = 143000.0"] ;
973 -> 974 ;
975 [label="squared_error = 0.0\nsamples = 1\nvalue = 131500.0"] ;
973 -> 975 ;
976 [label="x[84] <= -2.186\nsquared_error = 620514106.524\nsamples = 46\nvalue = 147661.674"] ;
964 -> 976 ;
977 [label="x[93] <= 0.083\nsquared_error = 264062500.0\nsamples = 2\nvalue = 106250.0"] ;
976 -> 977 ;
978 [label="squared_error = 0.0\nsamples = 1\nvalue = 122500.0"] ;
977 -> 978 ;
979 [label="squared_error = 0.0\nsamples = 1\nvalue = 90000.0"] ;
977 -> 979 ;
980 [label="x[85] <= -0.126\nsquared_error = 555221999.931\nsamples = 44\nvalue = 149544.023"] ;
976 -> 980 ;
981 [label="x[52] <= 0.5\nsquared_error = 274794103.558\nsamples = 27\nvalue = 141245.815"] ;
980 -> 981 ;
982 [label="x[66] <= 0.5\nsquared_error = 230227450.925\nsamples = 26\nvalue = 139816.808"] ;
981 -> 982 ;
983 [label="x[44] <= 0.5\nsquared_error = 108066224.49\nsamples = 14\nvalue = 146364.286"] ;
982 -> 983 ;
984 [label="x[82] <= 0.321\nsquared_error = 70625468.75\nsamples = 4\nvalue = 140012.5"] ;
983 -> 984 ;
985 [label="squared_error = 0.0\nsamples = 1\nvalue = 154000.0"] ;
984 -> 985 ;
986 [label="x[84] <= -0.166\nsquared_error = 7211666.667\nsamples = 3\nvalue = 135350.0"] ;
984 -> 986 ;
987 [label="x[83] <= -0.061\nsquared_error = 1890625.0\nsamples = 2\nvalue = 133625.0"] ;
986 -> 987 ;
988 [label="squared_error = 0.0\nsamples = 1\nvalue = 132250.0"] ;
987 -> 988 ;
989 [label="squared_error = 0.0\nsamples = 1\nvalue = 135000.0"] ;
987 -> 989 ;
990 [label="squared_error = 0.0\nsamples = 1\nvalue = 138800.0"] ;
986 -> 990 ;
991 [label="x[93] <= 0.819\nsquared_error = 100449225.0\nsamples = 10\nvalue = 148905.0"] ;
983 -> 991 ;
992 [label="x[91] <= 1.003\nsquared_error = 91166523.438\nsamples = 8\nvalue = 151506.25"] ;
991 -> 992 ;
993 [label="x[26] <= 0.5\nsquared_error = 48952755.102\nsamples = 7\nvalue = 148878.571"] ;
992 -> 993 ;
994 [label="x[69] <= 0.5\nsquared_error = 22308680.556\nsamples = 6\nvalue = 151108.333"] ;
993 -> 994 ;
995 [label="x[23] <= 0.5\nsquared_error = 9041666.667\nsamples = 3\nvalue = 147250.0"] ;
994 -> 995 ;
996 [label="squared_error = 0.0\nsamples = 1\nvalue = 151500.0"] ;
995 -> 996 ;
997 [label="x[68] <= 0.5\nsquared_error = 15625.0\nsamples = 2\nvalue = 145125.0"] ;
995 -> 997 ;
998 [label="squared_error = 0.0\nsamples = 1\nvalue = 145000.0"] ;
997 -> 998 ;
999 [label="squared_error = 0.0\nsamples = 1\nvalue = 145250.0"] ;
997 -> 999 ;
1000 [label="x[87] <= 0.757\nsquared_error = 5802222.222\nsamples = 3\nvalue = 154966.667"] ;
994 -> 1000 ;
1001 [label="x[94] <= 1.248\nsquared_error = 2102500.0\nsamples = 2\nvalue = 156450.0"] ;
1000 -> 1001 ;
1002 [label="squared_error = 0.0\nsamples = 1\nvalue = 155000.0"] ;
1001 -> 1002 ;
1003 [label="squared_error = 0.0\nsamples = 1\nvalue = 157900.0"] ;
1001 -> 1003 ;
1004 [label="squared_error = 0.0\nsamples = 1\nvalue = 152000.0"] ;
1000 -> 1004 ;
1005 [label="squared_error = 0.0\nsamples = 1\nvalue = 135500.0"] ;
993 -> 1005 ;
1006 [label="squared_error = 0.0\nsamples = 1\nvalue = 169900.0"] ;
992 -> 1006 ;
1007 [label="x[62] <= 0.5\nsquared_error = 2250000.0\nsamples = 2\nvalue = 138500.0"] ;
991 -> 1007 ;
1008 [label="squared_error = 0.0\nsamples = 1\nvalue = 140000.0"] ;
1007 -> 1008 ;
1009 [label="squared_error = 0.0\nsamples = 1\nvalue = 137000.0"] ;
1007 -> 1009 ;
1010 [label="x[93] <= 1.186\nsquared_error = 264384392.076\nsamples = 12\nvalue = 132178.083"] ;
982 -> 1010 ;
1011 [label="x[80] <= 0.5\nsquared_error = 164686662.727\nsamples = 11\nvalue = 128967.0"] ;
1010 -> 1011 ;
1012 [label="x[94] <= 0.501\nsquared_error = 680555.556\nsamples = 3\nvalue = 111083.333"] ;
1011 -> 1012 ;
1013 [label="x[79] <= 0.5\nsquared_error = 140625.0\nsamples = 2\nvalue = 111625.0"] ;
1012 -> 1013 ;
1014 [label="squared_error = 0.0\nsamples = 1\nvalue = 111250.0"] ;
1013 -> 1014 ;
1015 [label="squared_error = 0.0\nsamples = 1\nvalue = 112000.0"] ;
1013 -> 1015 ;
1016 [label="squared_error = 0.0\nsamples = 1\nvalue = 110000.0"] ;
1012 -> 1016 ;
1017 [label="x[11] <= 0.5\nsquared_error = 61278912.234\nsamples = 8\nvalue = 135673.375"] ;
1011 -> 1017 ;
1018 [label="x[82] <= 0.21\nsquared_error = 45225583.959\nsamples = 7\nvalue = 133912.429"] ;
1017 -> 1018 ;
1019 [label="x[71] <= 0.5\nsquared_error = 4296875.0\nsamples = 4\nvalue = 128375.0"] ;
1018 -> 1019 ;
1020 [label="x[40] <= 0.5\nsquared_error = 666666.667\nsamples = 3\nvalue = 129500.0"] ;
1019 -> 1020 ;
1021 [label="squared_error = 0.0\nsamples = 1\nvalue = 128500.0"] ;
1020 -> 1021 ;
1022 [label="x[84] <= -0.514\nsquared_error = 250000.0\nsamples = 2\nvalue = 130000.0"] ;
1020 -> 1022 ;
1023 [label="squared_error = 0.0\nsamples = 1\nvalue = 130500.0"] ;
1022 -> 1023 ;
1024 [label="squared_error = 0.0\nsamples = 1\nvalue = 129500.0"] ;
1022 -> 1024 ;
1025 [label="squared_error = 0.0\nsamples = 1\nvalue = 125000.0"] ;
1019 -> 1025 ;
1026 [label="x[44] <= 0.5\nsquared_error = 4400837.556\nsamples = 3\nvalue = 141295.667"] ;
1018 -> 1026 ;
1027 [label="x[94] <= 0.128\nsquared_error = 1116192.25\nsamples = 2\nvalue = 139943.5"] ;
1026 -> 1027 ;
1028 [label="squared_error = 0.0\nsamples = 1\nvalue = 138887.0"] ;
1027 -> 1028 ;
1029 [label="squared_error = 0.0\nsamples = 1\nvalue = 141000.0"] ;
1027 -> 1029 ;
1030 [label="squared_error = 0.0\nsamples = 1\nvalue = 144000.0"] ;
1026 -> 1030 ;
1031 [label="squared_error = 0.0\nsamples = 1\nvalue = 148000.0"] ;
1017 -> 1031 ;
1032 [label="squared_error = 0.0\nsamples = 1\nvalue = 167500.0"] ;
1010 -> 1032 ;
1033 [label="squared_error = 0.0\nsamples = 1\nvalue = 178400.0"] ;
981 -> 1033 ;
1034 [label="x[84] <= -1.789\nsquared_error = 717541799.308\nsamples = 17\nvalue = 162723.529"] ;
980 -> 1034 ;
1035 [label="x[94] <= 0.501\nsquared_error = 351562500.0\nsamples = 2\nvalue = 195750.0"] ;
1034 -> 1035 ;
1036 [label="squared_error = 0.0\nsamples = 1\nvalue = 177000.0"] ;
1035 -> 1036 ;
1037 [label="squared_error = 0.0\nsamples = 1\nvalue = 214500.0"] ;
1035 -> 1037 ;
1038 [label="x[24] <= 0.5\nsquared_error = 601514933.333\nsamples = 15\nvalue = 158320.0"] ;
1034 -> 1038 ;
1039 [label="x[66] <= 0.5\nsquared_error = 478473017.751\nsamples = 13\nvalue = 163292.308"] ;
1038 -> 1039 ;
1040 [label="x[84] <= -0.066\nsquared_error = 470648900.0\nsamples = 10\nvalue = 168890.0"] ;
1039 -> 1040 ;
1041 [label="x[94] <= -0.246\nsquared_error = 144921875.0\nsamples = 4\nvalue = 180625.0"] ;
1040 -> 1041 ;
1042 [label="x[94] <= -0.993\nsquared_error = 1562500.0\nsamples = 2\nvalue = 188750.0"] ;
1041 -> 1042 ;
1043 [label="squared_error = 0.0\nsamples = 1\nvalue = 190000.0"] ;
1042 -> 1043 ;
1044 [label="squared_error = 0.0\nsamples = 1\nvalue = 187500.0"] ;
1042 -> 1044 ;
1045 [label="x[31] <= 0.5\nsquared_error = 156250000.0\nsamples = 2\nvalue = 172500.0"] ;
1041 -> 1045 ;
1046 [label="squared_error = 0.0\nsamples = 1\nvalue = 160000.0"] ;
1045 -> 1046 ;
1047 [label="squared_error = 0.0\nsamples = 1\nvalue = 185000.0"] ;
1045 -> 1047 ;
1048 [label="x[86] <= 0.232\nsquared_error = 534788888.889\nsamples = 6\nvalue = 161066.667"] ;
1040 -> 1048 ;
1049 [label="x[93] <= -0.284\nsquared_error = 417509600.0\nsamples = 5\nvalue = 167180.0"] ;
1048 -> 1049 ;
1050 [label="x[84] <= 0.314\nsquared_error = 189062500.0\nsamples = 2\nvalue = 188750.0"] ;
1049 -> 1050 ;
1051 [label="squared_error = 0.0\nsamples = 1\nvalue = 175000.0"] ;
1050 -> 1051 ;
1052 [label="squared_error = 0.0\nsamples = 1\nvalue = 202500.0"] ;
1050 -> 1052 ;
1053 [label="x[26] <= 0.5\nsquared_error = 52846666.667\nsamples = 3\nvalue = 152800.0"] ;
1049 -> 1053 ;
1054 [label="x[84] <= 0.083\nsquared_error = 8702500.0\nsamples = 2\nvalue = 147950.0"] ;
1053 -> 1054 ;
1055 [label="squared_error = 0.0\nsamples = 1\nvalue = 145000.0"] ;
1054 -> 1055 ;
1056 [label="squared_error = 0.0\nsamples = 1\nvalue = 150900.0"] ;
1054 -> 1056 ;
1057 [label="squared_error = 0.0\nsamples = 1\nvalue = 162500.0"] ;
1053 -> 1057 ;
1058 [label="squared_error = 0.0\nsamples = 1\nvalue = 130500.0"] ;
1048 -> 1058 ;
1059 [label="x[89] <= 2.73\nsquared_error = 51948888.889\nsamples = 3\nvalue = 144633.333"] ;
1039 -> 1059 ;
1060 [label="x[94] <= -0.246\nsquared_error = 7840000.0\nsamples = 2\nvalue = 139800.0"] ;
1059 -> 1060 ;
1061 [label="squared_error = 0.0\nsamples = 1\nvalue = 137000.0"] ;
1060 -> 1061 ;
1062 [label="squared_error = 0.0\nsamples = 1\nvalue = 142600.0"] ;
1060 -> 1062 ;
1063 [label="squared_error = 0.0\nsamples = 1\nvalue = 154300.0"] ;
1059 -> 1063 ;
1064 [label="x[83] <= 1.733\nsquared_error = 196000000.0\nsamples = 2\nvalue = 126000.0"] ;
1038 -> 1064 ;
1065 [label="squared_error = 0.0\nsamples = 1\nvalue = 112000.0"] ;
1064 -> 1065 ;
1066 [label="squared_error = 0.0\nsamples = 1\nvalue = 140000.0"] ;
1064 -> 1066 ;
1067 [label="x[85] <= -0.126\nsquared_error = 3804892090.807\nsamples = 125\nvalue = 200397.448"] ;
963 -> 1067 ;
1068 [label="x[55] <= 0.5\nsquared_error = 1719781572.283\nsamples = 60\nvalue = 170605.483"] ;
1067 -> 1068 ;
1069 [label="x[93] <= -0.284\nsquared_error = 3099578327.209\nsamples = 14\nvalue = 202369.929"] ;
1068 -> 1069 ;
1070 [label="x[63] <= 0.5\nsquared_error = 2657216392.776\nsamples = 7\nvalue = 236611.286"] ;
1069 -> 1070 ;
1071 [label="x[21] <= 0.5\nsquared_error = 1190048883.472\nsamples = 6\nvalue = 253129.833"] ;
1070 -> 1071 ;
1072 [label="x[91] <= 1.684\nsquared_error = 610360334.56\nsamples = 5\nvalue = 241455.8"] ;
1071 -> 1072 ;
1073 [label="x[67] <= 0.5\nsquared_error = 575016875.0\nsamples = 4\nvalue = 235325.0"] ;
1072 -> 1073 ;
1074 [label="x[89] <= 0.274\nsquared_error = 117722500.0\nsamples = 2\nvalue = 212650.0"] ;
1073 -> 1074 ;
1075 [label="squared_error = 0.0\nsamples = 1\nvalue = 223500.0"] ;
1074 -> 1075 ;
1076 [label="squared_error = 0.0\nsamples = 1\nvalue = 201800.0"] ;
1074 -> 1076 ;
1077 [label="x[89] <= -0.954\nsquared_error = 4000000.0\nsamples = 2\nvalue = 258000.0"] ;
1073 -> 1077 ;
1078 [label="squared_error = 0.0\nsamples = 1\nvalue = 260000.0"] ;
1077 -> 1078 ;
1079 [label="squared_error = 0.0\nsamples = 1\nvalue = 256000.0"] ;
1077 -> 1079 ;
1080 [label="squared_error = 0.0\nsamples = 1\nvalue = 265979.0"] ;
1072 -> 1080 ;
1081 [label="squared_error = 0.0\nsamples = 1\nvalue = 311500.0"] ;
1071 -> 1081 ;
1082 [label="squared_error = 0.0\nsamples = 1\nvalue = 137500.0"] ;
1070 -> 1082 ;
1083 [label="x[90] <= 1.398\nsquared_error = 1196999183.673\nsamples = 7\nvalue = 168128.571"] ;
1069 -> 1083 ;
1084 [label="x[82] <= 0.196\nsquared_error = 1213812500.0\nsamples = 4\nvalue = 187250.0"] ;
1083 -> 1084 ;
